{"learner":{"attributes":{"scikit_learn":"{\"_estimator_type\": \"classifier\"}"},"feature_names":["goal_difference","is_home","n_prev_passes","minute","distance","angle","angular_pressure","abs_goal_diff","defenders_in_5m","gk_distance"],"feature_types":["int","int","int","float","float","float","float","int","int","float"],"gradient_booster":{"model":{"gbtree_model_param":{"num_parallel_tree":"1","num_trees":"100"},"iteration_indptr":[0,1,2,3,4,5,6,7,8,9,10,11,12,13,14,15,16,17,18,19,20,21,22,23,24,25,26,27,28,29,30,31,32,33,34,35,36,37,38,39,40,41,42,43,44,45,46,47,48,49,50,51,52,53,54,55,56,57,58,59,60,61,62,63,64,65,66,67,68,69,70,71,72,73,74,75,76,77,78,79,80,81,82,83,84,85,86,87,88,89,90,91,92,93,94,95,96,97,98,99,100],"tree_info":[0,0,0,0,0,0,0,0,0,0,0,0,0,0,0,0,0,0,0,0,0,0,0,0,0,0,0,0,0,0,0,0,0,0,0,0,0,0,0,0,0,0,0,0,0,0,0,0,0,0,0,0,0,0,0,0,0,0,0,0,0,0,0,0,0,0,0,0,0,0,0,0,0,0,0,0,0,0,0,0,0,0,0,0,0,0,0,0,0,0,0,0,0,0,0,0,0,0,0,0],"trees":[{"base_weights":[-4.3946585E-1,-9.5177525E-1,6.6881746E-1,-9.8527753E-1,2.1706772E0,-1.445195E-1,2.0440593E0,-1.0251423E0,2.4536997E-1,3.1987588E0,-3.253278E-1,9.2233753E-1,-4.2004016E-1,1.8123894E0,5.2258635E0,-8.0340695E-1,-1.105062E0,1.8410641E0,-6.736815E-2,3.191688E-1,3.3360374E0,1.1101311E0,-4.8681E-1,-6.148954E-1,-6.720779E-2,2.671944E0,1.0055465E0,4.006718E-1,1.5772572E0,-7.1098083E-1,-1.0586557E0,-1.1482652E0,-1.0399508E0,2.4107287E0,4.0405157E-1,1.8383469E-1,-4.9905536E-1,1.01722054E-1,1.0160054E0,1.20294504E-1,1.3682567E0,-5.3246576E-2,-7.0469034E-1,-3.9268234E-1,-6.989438E-1,2.982491E-1,-2.819419E-1,3.6703823E0,2.3156257E0,3.5977547E0,8.909091E-1,-1.6362302E-1,-2.412599E-1,-3.2366982E-1,-2.365629E-1,-1.7163186E-1,-3.4550837E-1,3.0488434E-1,-3.1257078E-1,7.97016E-1,-2.1099693E-1,6.4625597E-1,-8.353197E-2,-3.5502937E-2,1.6602586E-1,-1.1135867E-1,-2.4319592E-1,-1.7163186E-1,1.05378695E-1,2.9986066E-1,5.3688353E-1,-1.7242084E-1,1.6233277E-1,1.4244586E-1,-2.3354873E-1,-1.3543062E-2,-1.6507919E-1,-1.8756926E-1,-2.675602E-1,1.6059434E-1,-3.1788465E-2,-2.3887545E-2,-1.7534347E-1,1.1443396E0,6.1580193E-1,7.529065E-1,2.3981136E-1,1.1478524E0,1.709226E-1,3.4999797E-1,4.3949604E-2],"categories":[],"categories_nodes":[],"categories_segments":[],"categories_sizes":[],"default_left":[0,0,0,0,0,0,0,0,0,0,0,0,0,0,0,0,0,0,0,0,0,0,0,0,0,0,0,0,0,0,0,0,0,0,0,0,0,0,0,0,0,0,0,0,0,0,0,0,0,0,0,0,0,0,0,0,0,0,0,0,0,0,0,0,0,0,0,0,0,0,0,0,0,0,0,0,0,0,0,0,0,0,0,0,0,0,0,0,0,0,0],"id":0,"left_children":[1,3,5,7,9,11,13,15,17,19,-1,21,23,25,27,29,31,33,35,-1,37,39,41,43,45,47,49,-1,-1,51,53,55,57,59,61,63,65,-1,-1,67,69,71,73,75,77,79,81,83,85,87,89,-1,-1,-1,-1,-1,-1,-1,-1,-1,-1,-1,-1,-1,-1,-1,-1,-1,-1,-1,-1,-1,-1,-1,-1,-1,-1,-1,-1,-1,-1,-1,-1,-1,-1,-1,-1,-1,-1,-1,-1],"loss_changes":[5.693482E3,7.19354E2,3.546367E3,3.3320703E2,2.482243E2,5.861321E2,8.5831885E2,1.15393555E2,1.0690833E2,1.2367432E1,0E0,1.0890933E2,1.0883508E2,7.596914E2,2.098877E0,4.0245117E1,1.2169434E1,2.7473793E1,1.9591839E1,0E0,6.361023E0,9.205444E1,4.4929676E0,1.8676697E1,4.4427597E1,1.8011304E2,1.6542108E2,0E0,0E0,1.9254456E1,1.4867554E0,4.8825684E0,8.836426E0,2.1123398E1,1.4182123E1,1.2848899E1,2.2285938E0,0E0,0E0,1.2325216E1,4.2453674E1,5.752128E0,3.204711E0,1.5396774E1,9.798004E0,2.0170498E1,2.171536E1,2.3772217E1,1.1381641E2,1.3793579E1,1.11823944E2,0E0,0E0,0E0,0E0,0E0,0E0,0E0,0E0,0E0,0E0,0E0,0E0,0E0,0E0,0E0,0E0,0E0,0E0,0E0,0E0,0E0,0E0,0E0,0E0,0E0,0E0,0E0,0E0,0E0,0E0,0E0,0E0,0E0,0E0,0E0,0E0,0E0,0E0,0E0,0E0],"parents":[2147483647,0,0,1,1,2,2,3,3,4,4,5,5,6,6,7,7,8,8,9,9,11,11,12,12,13,13,14,14,15,15,16,16,17,17,18,18,20,20,21,21,22,22,23,23,24,24,25,25,26,26,29,29,30,30,31,31,32,32,33,33,34,34,35,35,36,36,39,39,40,40,41,41,42,42,43,43,44,44,45,45,46,46,47,47,48,48,49,49,50,50],"right_children":[2,4,6,8,10,12,14,16,18,20,-1,22,24,26,28,30,32,34,36,-1,38,40,42,44,46,48,50,-1,-1,52,54,56,58,60,62,64,66,-1,-1,68,70,72,74,76,78,80,82,84,86,88,90,-1,-1,-1,-1,-1,-1,-1,-1,-1,-1,-1,-1,-1,-1,-1,-1,-1,-1,-1,-1,-1,-1,-1,-1,-1,-1,-1,-1,-1,-1,-1,-1,-1,-1,-1,-1,-1,-1,-1,-1],"split_conditions":[1E0,5E1,2.426094E1,5.526091E1,1.3E1,1.1684606E1,1.640122E1,1.0394711E1,4.1231055E0,1.9E0,-3.253278E-1,1.02248326E-1,1.6600176E1,6.946222E0,8.045496E0,5.9105746E-2,1.6333508E1,4E0,4E0,3.191688E-1,1.0084641E1,1.4904424E1,8.438009E0,1E0,2.2E1,6.074537E0,7.81025E0,4.006718E-1,1.5772572E0,6.484597E0,4.49E1,5.0263124E0,9.080198E0,9.832443E-2,1E0,2.6716667E1,2E0,1.01722054E-1,1.0160054E0,9.572717E0,2E0,2.4926358E-1,3.85E0,2.01E1,2.8335136E1,1.5580574E-2,1.6492078E-2,1.1791918E-1,8.7046646E-2,4E0,3.779162E-2,-1.6362302E-1,-2.412599E-1,-3.2366982E-1,-2.365629E-1,-1.7163186E-1,-3.4550837E-1,3.0488434E-1,-3.1257078E-1,7.97016E-1,-2.1099693E-1,6.4625597E-1,-8.353197E-2,-3.5502937E-2,1.6602586E-1,-1.1135867E-1,-2.4319592E-1,-1.7163186E-1,1.05378695E-1,2.9986066E-1,5.3688353E-1,-1.7242084E-1,1.6233277E-1,1.4244586E-1,-2.3354873E-1,-1.3543062E-2,-1.6507919E-1,-1.8756926E-1,-2.675602E-1,1.6059434E-1,-3.1788465E-2,-2.3887545E-2,-1.7534347E-1,1.1443396E0,6.1580193E-1,7.529065E-1,2.3981136E-1,1.1478524E0,1.709226E-1,3.4999797E-1,4.3949604E-2],"split_indices":[0,9,5,5,4,9,9,9,4,3,0,6,5,9,4,6,5,8,8,0,4,5,9,8,3,4,4,0,0,9,3,5,4,6,2,3,2,0,0,5,0,6,3,3,4,6,6,6,6,8,6,0,0,0,0,0,0,0,0,0,0,0,0,0,0,0,0,0,0,0,0,0,0,0,0,0,0,0,0,0,0,0,0,0,0,0,0,0,0,0,0],"split_type":[0,0,0,0,0,0,0,0,0,0,0,0,0,0,0,0,0,0,0,0,0,0,0,0,0,0,0,0,0,0,0,0,0,0,0,0,0,0,0,0,0,0,0,0,0,0,0,0,0,0,0,0,0,0,0,0,0,0,0,0,0,0,0,0,0,0,0,0,0,0,0,0,0,0,0,0,0,0,0,0,0,0,0,0,0,0,0,0,0,0,0],"sum_hessian":[1.002538E4,6.8562676E3,3.1691123E3,6.7841934E3,7.207432E1,1.9918983E3,1.1772139E3,6.571567E3,2.1262643E2,5.4811012E1,1.7263311E1,4.0827728E2,1.583621E3,1.0988097E3,7.8404205E1,1.7443137E3,4.8272534E3,3.409504E1,1.785314E2,3.884245E0,5.0926765E1,3.6051547E2,4.7761826E1,1.01954236E3,5.640787E2,5.308468E2,5.679629E2,1.0070264E0,7.739718E1,1.283671E3,4.6064267E2,2.8908853E3,1.936368E3,2.3880913E1,1.0214126E1,1.13074684E2,6.545672E1,1.0070264E0,4.991974E1,7.495154E1,2.8556393E2,1.6544006E1,3.121782E1,2.816797E2,7.378627E2,2.0845447E2,3.556242E2,1.3709946E2,3.9374734E2,2.2730026E1,5.452329E2,4.6524622E2,8.184248E2,4.2539676E2,3.5245926E1,1.8270336E1,2.872615E3,1.2947483E0,1.9350732E3,2.2298443E1,1.5824702E0,2.3017747E0,7.9123507E0,6.243564E1,5.0639046E1,4.819341E1,1.7263311E1,1.8270336E1,5.6681202E1,1.542189E2,1.3134502E2,8.919377E0,7.624629E0,1.4386092E0,2.9779211E1,8.8474464E1,1.9320522E2,5.3732056E2,2.0054213E2,1.3134502E2,7.710945E1,2.1406505E2,1.4155914E2,1.2458356E2,1.2515901E1,3.4843115E2,4.531619E1,2.0859833E1,1.8701919E0,3.9734387E2,1.4788902E2],"tree_param":{"num_deleted":"0","num_feature":"10","num_nodes":"91","size_leaf_vector":"1"}},{"base_weights":[-3.8490403E-1,-8.504537E-1,3.5407975E-1,-9.75172E-1,-3.412229E-1,-3.050616E-1,7.910501E-1,-7.2706634E-1,-1.0219628E0,-4.7731802E-1,1.2512674E0,3.8476953E-1,-4.2175445E-1,9.43829E-1,2.3176524E-1,-6.424536E-1,-9.946685E-1,-1.0698726E0,-9.49117E-1,4.5910588E-1,-5.905136E-1,-1.8324707E-1,1.2819647E0,1.7027158E-1,1.1966492E0,-5.603891E-1,-2.4455553E-1,1.3203263E0,7.58799E-1,1.6125647E-2,7.0590425E-1,-3.2006556E-1,-5.7985437E-1,-9.866854E-2,-1.0045191E0,-4.8019105E-1,-1.0739318E0,-8.788493E-1,-1.0216907E0,1.2719713E0,2.3539554E-1,-3.627063E-1,-7.472463E-1,6.18811E-1,1.3561637E0,3.1085157E-1,-3.7024108E-1,1.5524392E0,-2.5390802E-2,-1.1023051E-1,-6.1499286E-1,-1.2979089E-1,-5.1009995E-1,9.2902744E-1,1.514199E0,1.2623742E0,6.202946E-1,4.5751208E-1,-1.4716785E-1,1.1461363E0,4.4305646E-1,-2.2024556E-1,-1.1172589E-1,-1.6103053E-1,1.0067374E-1,-3.027869E-1,-4.4181656E-2,-2.8679255E-1,4.696608E-2,-3.222971E-1,-7.155888E-2,-2.7985328E-1,-2.0421764E-1,-1.5170741E-2,-3.0685675E-1,4.4054368E-1,-3.6195535E-2,1.5801714E-1,-1.3287453E-1,-7.353784E-2,-2.4201368E-1,-1.6614705E-1,-2.712658E-1,-2.4143805E-1,2.6626793E-1,4.2127886E-1,2.400891E-1,-8.068891E-2,1.2704478E-1,-1.9523583E-1,3.5745393E-2,5.2735114E-1,-2.3057653E-2,-2.2678281E-1,1.3936812E-1,3.868407E-2,-2.1944451E-1,-2.1165913E-1,-1.3674936E-1,3.6229927E-2,-8.675996E-2,-1.6202405E-1,1.9332568E-1,3.9465103E-1,1.7484729E-1,5.0883776E-1,2.431134E-1,2.170007E-1,4.6219546E-1,2.453083E-1,8.099665E-2,3.8282254E-1,8.920949E-2,-1.5129542E-3,-1.8470931E-1,3.617624E-1,-1.4470236E-1,2.3597993E-1,5.7254743E-2],"categories":[],"categories_nodes":[],"categories_segments":[],"categories_sizes":[],"default_left":[0,0,0,0,0,0,0,0,0,0,0,0,0,0,0,0,0,0,0,0,0,0,0,0,0,0,0,0,0,0,0,0,0,0,0,0,0,0,0,0,0,0,0,0,0,0,0,0,0,0,0,0,0,0,0,0,0,0,0,0,0,0,0,0,0,0,0,0,0,0,0,0,0,0,0,0,0,0,0,0,0,0,0,0,0,0,0,0,0,0,0,0,0,0,0,0,0,0,0,0,0,0,0,0,0,0,0,0,0,0,0,0,0,0,0,0,0,0,0],"id":1,"left_children":[1,3,5,7,9,11,13,15,17,19,21,23,25,27,29,31,33,35,37,39,41,-1,43,45,47,49,51,53,55,57,59,-1,61,63,65,67,69,71,73,75,77,79,81,83,85,87,89,91,93,95,97,99,101,103,105,107,109,111,113,115,117,-1,-1,-1,-1,-1,-1,-1,-1,-1,-1,-1,-1,-1,-1,-1,-1,-1,-1,-1,-1,-1,-1,-1,-1,-1,-1,-1,-1,-1,-1,-1,-1,-1,-1,-1,-1,-1,-1,-1,-1,-1,-1,-1,-1,-1,-1,-1,-1,-1,-1,-1,-1,-1,-1,-1,-1,-1,-1],"loss_changes":[3.1611348E3,3.575359E2,1.0232241E3,5.163916E1,2.412318E2,1.1418956E2,1.8218457E2,1.5548248E1,1.2066162E1,1.0882628E2,5.8610535E0,3.5419266E1,2.9559479E1,1.1563611E2,4.692549E1,1.3876526E1,1.3030853E0,4.803955E0,6.6621094E0,1.9716427E1,3.2255463E1,0E0,3.2252808E0,1.2547359E1,1.873603E1,1.6549164E1,1.6148174E1,4.0161194E1,7.764349E1,2.2961407E1,1.5946098E1,0E0,1.508284E1,7.867456E-1,4.280243E-1,5.566096E0,3.5595703E-1,7.5477905E0,6.7907715E-1,6.7731743E0,1.7688494E1,1.9262589E1,1.5758667E1,4.8128476E0,7.1243286E-1,8.657943E0,4.812009E0,1.1384415E1,4.1521945E0,1.127888E1,8.281952E0,1.5012394E1,5.895897E0,2.3844849E1,4.5340942E1,3.4962006E1,6.0945984E1,1.0746286E1,1.53928385E1,5.800308E0,7.694557E0,0E0,0E0,0E0,0E0,0E0,0E0,0E0,0E0,0E0,0E0,0E0,0E0,0E0,0E0,0E0,0E0,0E0,0E0,0E0,0E0,0E0,0E0,0E0,0E0,0E0,0E0,0E0,0E0,0E0,0E0,0E0,0E0,0E0,0E0,0E0,0E0,0E0,0E0,0E0,0E0,0E0,0E0,0E0,0E0,0E0,0E0,0E0,0E0,0E0,0E0,0E0,0E0,0E0,0E0,0E0,0E0,0E0,0E0],"parents":[2147483647,0,0,1,1,2,2,3,3,4,4,5,5,6,6,7,7,8,8,9,9,10,10,11,11,12,12,13,13,14,14,15,15,16,16,17,17,18,18,19,19,20,20,22,22,23,23,24,24,25,25,26,26,27,27,28,28,29,29,30,30,32,32,33,33,34,34,35,35,36,36,37,37,38,38,39,39,40,40,41,41,42,42,43,43,44,44,45,45,46,46,47,47,48,48,49,49,50,50,51,51,52,52,53,53,54,54,55,55,56,56,57,57,58,58,59,59,60,60],"right_children":[2,4,6,8,10,12,14,16,18,20,22,24,26,28,30,32,34,36,38,40,42,-1,44,46,48,50,52,54,56,58,60,-1,62,64,66,68,70,72,74,76,78,80,82,84,86,88,90,92,94,96,98,100,102,104,106,108,110,112,114,116,118,-1,-1,-1,-1,-1,-1,-1,-1,-1,-1,-1,-1,-1,-1,-1,-1,-1,-1,-1,-1,-1,-1,-1,-1,-1,-1,-1,-1,-1,-1,-1,-1,-1,-1,-1,-1,-1,-1,-1,-1,-1,-1,-1,-1,-1,-1,-1,-1,-1,-1,-1,-1,-1,-1,-1,-1,-1,-1],"split_conditions":[1E0,3.3035316E1,1.9204388E1,1.0394711E1,1.2705904E1,1.0948059E1,1.6194142E-2,5.7065006E-2,1.6333508E1,5.3450913E0,4.6666667E-1,1.6883425E1,1.4904424E1,1.7033333E1,3.6173832E1,1.41325E1,7.05195E0,5.0263124E0,7.028218E-3,3.4014702E0,6.4031243E0,-1.8324707E-1,-1E0,6.895082E-3,3.9483334E1,7.9666667E0,2.0424599E-2,2.8570286E1,1E0,1.6683332E1,7.05195E0,-3.2006556E-1,1.2808201E1,2.8837374E1,5.0333332E1,2.2566668E1,5.271277E-1,3.705E1,1.11400175E1,1.0856998E-1,4E0,3.9514054E-2,3E0,4.8E0,4.1683334E1,1.1510036E1,1.6395363E1,2.3853722E1,2E0,6.737947E-3,2E0,2.1833334E1,2.523351E1,9.962429E0,3E0,2.9168358E1,8.854942E0,8.041144E0,2.0189652E-1,4.65E1,1.2756541E-1,-2.2024556E-1,-1.1172589E-1,-1.6103053E-1,1.0067374E-1,-3.027869E-1,-4.4181656E-2,-2.8679255E-1,4.696608E-2,-3.222971E-1,-7.155888E-2,-2.7985328E-1,-2.0421764E-1,-1.5170741E-2,-3.0685675E-1,4.4054368E-1,-3.6195535E-2,1.5801714E-1,-1.3287453E-1,-7.353784E-2,-2.4201368E-1,-1.6614705E-1,-2.712658E-1,-2.4143805E-1,2.6626793E-1,4.2127886E-1,2.400891E-1,-8.068891E-2,1.2704478E-1,-1.9523583E-1,3.5745393E-2,5.2735114E-1,-2.3057653E-2,-2.2678281E-1,1.3936812E-1,3.868407E-2,-2.1944451E-1,-2.1165913E-1,-1.3674936E-1,3.6229927E-2,-8.675996E-2,-1.6202405E-1,1.9332568E-1,3.9465103E-1,1.7484729E-1,5.0883776E-1,2.431134E-1,2.170007E-1,4.6219546E-1,2.453083E-1,8.099665E-2,3.8282254E-1,8.920949E-2,-1.5129542E-3,-1.8470931E-1,3.617624E-1,-1.4470236E-1,2.3597993E-1,5.7254743E-2],"split_indices":[0,5,5,9,9,9,6,6,5,4,3,4,5,3,5,5,4,5,6,4,9,0,0,6,3,3,6,5,2,3,4,0,4,5,3,3,6,3,4,6,8,6,8,3,3,5,5,4,0,6,0,3,9,9,8,5,9,9,6,3,6,0,0,0,0,0,0,0,0,0,0,0,0,0,0,0,0,0,0,0,0,0,0,0,0,0,0,0,0,0,0,0,0,0,0,0,0,0,0,0,0,0,0,0,0,0,0,0,0,0,0,0,0,0,0,0,0,0,0],"split_type":[0,0,0,0,0,0,0,0,0,0,0,0,0,0,0,0,0,0,0,0,0,0,0,0,0,0,0,0,0,0,0,0,0,0,0,0,0,0,0,0,0,0,0,0,0,0,0,0,0,0,0,0,0,0,0,0,0,0,0,0,0,0,0,0,0,0,0,0,0,0,0,0,0,0,0,0,0,0,0,0,0,0,0,0,0,0,0,0,0,0,0,0,0,0,0,0,0,0,0,0,0,0,0,0,0,0,0,0,0,0,0,0,0,0,0,0,0,0,0],"sum_hessian":[9.186426E3,5.635882E3,3.5505442E3,4.526229E3,1.109653E3,1.4154711E3,2.135073E3,7.211341E2,3.805095E3,1.0229907E3,8.666228E1,2.0434267E2,1.2111284E3,1.6762958E3,4.587773E2,5.507635E2,1.7037057E2,2.2863386E3,1.5187563E3,1.0989897E2,9.1309174E2,1.0461655E0,8.561611E1,1.6269237E2,4.16503E1,6.7797565E2,5.331528E2,5.5015967E2,1.1261361E3,3.162094E2,1.4256792E2,6.852359E1,4.8223993E2,2.0828767E0,1.682877E2,1.6614923E1,2.2697236E3,7.789988E2,7.397576E2,2.2610285E1,8.728868E1,3.7377338E2,5.3931836E2,9.690947E0,7.592516E1,1.295961E2,3.309628E1,3.2112415E1,9.537884E0,7.386614E1,6.041095E2,3.735674E2,1.5958534E2,1.8436275E2,3.657969E2,2.4101526E2,8.8512085E2,8.507099E1,2.3113843E2,5.1900745E1,9.066717E1,2.7480716E2,2.0743277E2,1.0339499E0,1.048927E0,1.6706398E2,1.2237186E0,9.312329E0,7.3025947E0,2.268254E3,1.4696168E0,6.0885406E2,1.701447E2,1.0424061E0,7.387152E2,1.9829552E1,2.7807322E0,6.1322243E1,2.5966444E1,2.9692105E2,7.685234E1,2.4392186E2,2.953965E2,1.163105E0,8.527842E0,6.8308304E1,7.6168623E0,2.0709505E1,1.0888659E2,2.0957123E1,1.2139155E1,2.850181E1,3.6106038E0,3.6928263E0,5.8450575E0,5.378916E1,2.0076982E1,3.824789E2,2.2163055E2,1.4510617E2,2.2846124E2,1.5614932E2,3.4360204E0,8.565505E1,9.8707695E1,2.894314E2,7.636552E1,8.340801E1,1.5760725E2,5.650766E2,3.2004425E2,1.2677856E1,7.2393135E1,1.7828218E2,5.2856236E1,5.037377E1,1.5269738E0,3.731852E1,5.3348644E1],"tree_param":{"num_deleted":"0","num_feature":"10","num_nodes":"119","size_leaf_vector":"1"}},{"base_weights":[-3.2360485E-1,-7.5804174E-1,2.3311007E-1,-8.924913E-1,-2.763886E-1,-1.7732395E-1,5.518299E-1,-6.2030685E-1,-9.478825E-1,6.894837E-1,-4.0276712E-1,3.7475756E-1,-3.0342627E-1,4.9231848E-1,1.3953776E0,-5.347751E-1,-9.154028E-1,-1.0107995E0,-8.6670667E-1,3.6636963E-1,8.893479E-1,-5.71513E-1,1.22753605E-1,1.598069E-1,6.569765E-1,-4.5612866E-1,-1.6737732E-1,6.445136E-1,1.8592672E-1,4.2239577E-1,-2.6022723E-2,-9.931607E-1,-4.741165E-1,-8.4391475E-2,-9.2664415E-1,-3.9747703E-1,-1.0160346E0,-7.8698105E-1,-9.5266855E-1,-5.732711E-1,6.2359166E-1,7.739405E-1,1.9174402E0,-3.9083895E-1,-7.526592E-1,6.2185633E-1,-2.4570502E-2,1.852022E-2,5.8855665E-1,3.83226E-1,9.451654E-1,4.6551284E-1,-4.7861278E-1,-6.0628153E-2,-3.7674278E-1,7.703623E-1,3.2632264E-1,5.3495073E-1,3.1735E-2,-8.2526624E-2,-3.0234358E-1,-1.9177118E-1,-7.997382E-2,-1.5876412E-1,1.0815122E-1,-2.854929E-1,-1.5658091E-1,-2.0043446E-1,1.531525E-1,-3.108279E-1,-2.8908068E-1,-2.615808E-1,-1.9212739E-1,-2.861974E-1,-1.23884E-2,1.5787065E-1,-2.4353606E-1,-2.3411207E-1,2.1058866E-1,-4.6762705E-2,2.7938917E-1,5.6775898E-2,7.727404E-1,-1.3901134E-1,3.705609E-2,-4.29985E-2,-2.3916583E-1,3.7435335E-1,9.768454E-2,-1.1683617E-1,5.452271E-2,1.8438146E-1,-2.9164728E-2,2.2947949E-1,-3.9470017E-2,3.8852486E-1,5.577272E-2,-2.3554863E-2,3.2695904E-1,-1.3117194E-1,4.53228E-1,-1.21496E-1,-2.0789991E-1,7.559649E-2,-4.734819E-2,-9.320459E-2,-2.820729E-1,1.923474E-1,3.3780634E-1,7.65744E-2,3.448754E-1,2.350889E-1,1.06409505E-1,-1.1825511E-2,2.1948709E-1],"categories":[],"categories_nodes":[],"categories_segments":[],"categories_sizes":[],"default_left":[0,0,0,0,0,0,0,0,0,0,0,0,0,0,0,0,0,0,0,0,0,0,0,0,0,0,0,0,0,0,0,0,0,0,0,0,0,0,0,0,0,0,0,0,0,0,0,0,0,0,0,0,0,0,0,0,0,0,0,0,0,0,0,0,0,0,0,0,0,0,0,0,0,0,0,0,0,0,0,0,0,0,0,0,0,0,0,0,0,0,0,0,0,0,0,0,0,0,0,0,0,0,0,0,0,0,0,0,0,0,0,0,0,0,0],"id":2,"left_children":[1,3,5,7,9,11,13,15,17,19,21,23,25,27,29,31,33,35,37,39,41,43,45,47,49,51,53,55,57,-1,-1,59,61,63,65,67,69,71,73,75,77,79,81,83,85,87,89,91,93,95,97,99,101,103,105,107,109,111,113,-1,-1,-1,-1,-1,-1,-1,-1,-1,-1,-1,-1,-1,-1,-1,-1,-1,-1,-1,-1,-1,-1,-1,-1,-1,-1,-1,-1,-1,-1,-1,-1,-1,-1,-1,-1,-1,-1,-1,-1,-1,-1,-1,-1,-1,-1,-1,-1,-1,-1,-1,-1,-1,-1,-1,-1],"loss_changes":[1.9957496E3,2.9977026E2,4.7330316E2,5.387256E1,1.23903915E2,1.10222275E2,1.0135419E2,1.4907593E1,1.4298584E1,7.1358795E0,7.9619E1,1.7672699E1,2.6625587E1,8.857764E1,2.7497253E0,1.2730728E1,1.0977554E0,4.8741455E0,8.130127E0,1.1671915E1,6.7536507E0,2.1812286E1,1.6147675E1,1.014406E1,9.505436E0,1.278331E1,1.52031765E1,5.055078E1,3.4018112E1,0E0,0E0,1.7308044E-1,1.4339905E1,8.099574E-1,7.1832275E-1,4.310438E0,5.609131E-1,7.9031982E0,6.2091064E-1,3.2077038E0,4.6438427E0,9.91227E0,6.599329E0,1.2860573E1,8.960159E0,8.710335E0,1.285734E1,8.94545E0,5.4464645E0,1.1642596E1,9.206398E0,1.4765692E1,8.957672E0,1.3826006E1,8.152439E0,4.0922913E1,2.076521E1,8.297298E0,2.2041464E1,0E0,0E0,0E0,0E0,0E0,0E0,0E0,0E0,0E0,0E0,0E0,0E0,0E0,0E0,0E0,0E0,0E0,0E0,0E0,0E0,0E0,0E0,0E0,0E0,0E0,0E0,0E0,0E0,0E0,0E0,0E0,0E0,0E0,0E0,0E0,0E0,0E0,0E0,0E0,0E0,0E0,0E0,0E0,0E0,0E0,0E0,0E0,0E0,0E0,0E0,0E0,0E0,0E0,0E0,0E0,0E0],"parents":[2147483647,0,0,1,1,2,2,3,3,4,4,5,5,6,6,7,7,8,8,9,9,10,10,11,11,12,12,13,13,14,14,15,15,16,16,17,17,18,18,19,19,20,20,21,21,22,22,23,23,24,24,25,25,26,26,27,27,28,28,31,31,32,32,33,33,34,34,35,35,36,36,37,37,38,38,39,39,40,40,41,41,42,42,43,43,44,44,45,45,46,46,47,47,48,48,49,49,50,50,51,51,52,52,53,53,54,54,55,55,56,56,57,57,58,58],"right_children":[2,4,6,8,10,12,14,16,18,20,22,24,26,28,30,32,34,36,38,40,42,44,46,48,50,52,54,56,58,-1,-1,60,62,64,66,68,70,72,74,76,78,80,82,84,86,88,90,92,94,96,98,100,102,104,106,108,110,112,114,-1,-1,-1,-1,-1,-1,-1,-1,-1,-1,-1,-1,-1,-1,-1,-1,-1,-1,-1,-1,-1,-1,-1,-1,-1,-1,-1,-1,-1,-1,-1,-1,-1,-1,-1,-1,-1,-1,-1,-1,-1,-1,-1,-1,-1,-1,-1,-1,-1,-1,-1,-1,-1,-1,-1,-1],"split_conditions":[1E0,3.3035316E1,2.122094E1,1.0394711E1,1E0,1.06794195E1,1.8006943E1,5.7065006E-2,1.5930294E1,0E0,5.526091E1,1.8262428E1,1.4904424E1,8.854942E0,1.920026E1,1.41325E1,7.05195E0,5.0263124E0,7.028218E-3,1.1871394E1,4.198179E1,3E0,4.1231055E0,1.6341665E1,2E0,6.3187075E0,1.4369596E-2,3E0,1.65E1,4.2239577E-1,-2.6022723E-2,8.045496E0,2.5766666E1,2.967524E1,4.49E1,3.725E1,3.355E1,2.97E1,2.4829418E1,-2E0,1.9E0,1.1503912E1,6.746851E0,4.9853085E1,1E0,1E0,0E0,1E0,3.89E1,7.5833335E0,3.6055512E0,2.7444672E1,7.5616194E-3,1E0,2.0970574E-1,5.0949455E1,8.111743E1,1E0,4E0,-8.2526624E-2,-3.0234358E-1,-1.9177118E-1,-7.997382E-2,-1.5876412E-1,1.0815122E-1,-2.854929E-1,-1.5658091E-1,-2.0043446E-1,1.531525E-1,-3.108279E-1,-2.8908068E-1,-2.615808E-1,-1.9212739E-1,-2.861974E-1,-1.23884E-2,1.5787065E-1,-2.4353606E-1,-2.3411207E-1,2.1058866E-1,-4.6762705E-2,2.7938917E-1,5.6775898E-2,7.727404E-1,-1.3901134E-1,3.705609E-2,-4.29985E-2,-2.3916583E-1,3.7435335E-1,9.768454E-2,-1.1683617E-1,5.452271E-2,1.8438146E-1,-2.9164728E-2,2.2947949E-1,-3.9470017E-2,3.8852486E-1,5.577272E-2,-2.3554863E-2,3.2695904E-1,-1.3117194E-1,4.53228E-1,-1.21496E-1,-2.0789991E-1,7.559649E-2,-4.734819E-2,-9.320459E-2,-2.820729E-1,1.923474E-1,3.3780634E-1,7.65744E-2,3.448754E-1,2.350889E-1,1.06409505E-1,-1.1825511E-2,2.1948709E-1],"split_indices":[0,5,5,9,8,9,9,6,5,0,5,5,5,9,4,5,4,5,6,9,5,8,4,4,0,5,6,8,3,0,0,4,3,5,3,3,3,3,9,0,3,9,4,5,2,2,0,8,3,3,9,9,6,2,6,5,5,1,0,0,0,0,0,0,0,0,0,0,0,0,0,0,0,0,0,0,0,0,0,0,0,0,0,0,0,0,0,0,0,0,0,0,0,0,0,0,0,0,0,0,0,0,0,0,0,0,0,0,0,0,0,0,0,0,0],"split_type":[0,0,0,0,0,0,0,0,0,0,0,0,0,0,0,0,0,0,0,0,0,0,0,0,0,0,0,0,0,0,0,0,0,0,0,0,0,0,0,0,0,0,0,0,0,0,0,0,0,0,0,0,0,0,0,0,0,0,0,0,0,0,0,0,0,0,0,0,0,0,0,0,0,0,0,0,0,0,0,0,0,0,0,0,0,0,0,0,0,0,0,0,0,0,0,0,0,0,0,0,0,0,0,0,0,0,0,0,0,0,0,0,0,0,0],"sum_hessian":[8.249812E3,4.6336914E3,3.6161196E3,3.621671E3,1.01202057E3,1.5806957E3,2.0354238E3,6.1477246E2,3.0068984E3,1.1648843E2,8.9553217E2,2.9340234E2,1.2872933E3,1.9028799E3,1.3254396E2,4.7906845E2,1.3570398E2,1.6868145E3,1.3200841E3,4.5791767E1,7.0696655E1,6.779452E2,2.1758696E2,1.6764044E2,1.25761925E2,6.0507025E2,6.8222314E2,1.2703995E3,6.324803E2,1.3154245E2,1.0015172E0,5.399753E1,4.2507092E2,2.0434785E0,1.3366049E2,1.5088867E1,1.6717256E3,6.9075745E2,6.2932666E2,9.493655E0,3.629811E1,6.522495E1,5.4716997E0,3.4127213E2,3.3667307E2,4.9009834E1,1.6857712E2,1.2704988E2,4.0590553E1,6.586939E1,5.9892532E1,1.3834444E1,5.912358E2,4.5301273E2,2.292104E2,9.0910236E2,3.612972E2,1.9284465E2,4.3963565E2,1.6116155E0,5.2385918E1,2.3529971E2,1.8977121E2,1.039449E0,1.0040295E0,1.2437906E2,9.281441E0,1.1912494E1,3.1763735E0,1.1942051E3,4.7752048E2,4.337134E2,2.5704404E2,6.2825836E2,1.0682762E0,1.4025675E0,8.091087E0,1.3780266E0,3.4920086E1,9.349998E0,5.5874958E1,1.9065061E0,3.5651934E0,2.9935257E2,4.1919548E1,2.338327E1,3.132898E2,1.46027975E1,3.4407036E1,6.074355E1,1.0783357E2,2.009688E1,1.06953E2,3.2666428E1,7.9241266E0,1.0637992E1,5.52314E1,7.3884506E0,5.250408E1,7.683995E0,6.1504493E0,4.4259305E2,1.4864273E2,1.0682282E2,3.461899E2,2.0670639E2,2.2504011E1,6.6911066E2,2.3999171E2,3.3390198E2,2.7395248E1,7.9400444E1,1.1344421E2,3.9979205E2,3.9843597E1],"tree_param":{"num_deleted":"0","num_feature":"10","num_nodes":"115","size_leaf_vector":"1"}},{"base_weights":[-2.6797587E-1,-6.692668E-1,1.6153009E-1,-8.125884E-1,-2.2042075E-1,-2.282845E-1,3.318294E-1,-6.513069E-1,-9.3109435E-1,2.3114349E-1,-4.114625E-1,2.506751E-1,-2.8462356E-1,2.9302332E-1,3.421239E-1,-5.6574595E-1,-8.695038E-1,-1.8472376E-1,-9.361534E-1,6.264089E-1,7.253043E-3,-5.481576E-1,7.6078884E-3,6.254753E-1,9.0085834E-2,-1.362203E-1,-3.9386714E-1,4.2707288E-1,9.633133E-2,-3.4345877E-1,-6.499536E-1,-2.142897E-2,-8.736395E-1,-7.5247115E-1,2.9819182E-1,-9.377547E-1,2.385313E-1,4.4368085E-1,1.6485564E0,-1.0145135E-1,5.962682E-1,-4.3391493E-1,-8.356608E-1,-3.407052E-1,1.9664878E-1,1.0009996E-1,9.9416685E-1,-2.0685427E-1,4.346975E-1,1.08539514E-1,-2.1274725E-1,-5.422737E-1,-1.9405861E-1,8.5160387E-1,3.6318693E-1,1.3645256E-1,-5.5653024E-1,-1.728476E-1,-4.569214E-2,4.5325002E-1,-1.9702663E-1,-2.9330292E-1,-2.4559465E-1,-2.62376E-1,-8.126289E-3,-8.834966E-2,3.084876E-1,-2.9187497E-1,-2.522579E-1,-1.5447399E-1,1.4942418E-1,2.6738299E-2,5.281513E-1,-7.1228944E-2,1.9123457E-1,2.4246441E-1,1.0355394E-1,-1.6471648E-1,-7.1806714E-2,-9.204252E-2,-2.6398537E-1,-1.3623057E-1,6.722158E-2,-5.69527E-2,1.4151843E-1,1.9626522E-1,-1.6906005E-1,1.7422244E-1,5.9303695E-1,-1.5510523E-1,3.45691E-2,1.9469188E-1,-6.6133365E-2,6.3979544E-2,-2.2504814E-1,5.81675E-3,-1.21513E-1,6.779371E-2,-1.6906972E-1,-2.6380754E-4,-1.0805153E-1,3.3437553E-1,1.9345194E-1,5.9458364E-2,1.7153169E-1,3.4462206E-2,3.8999113E-1,3.963098E-2,-1.912961E-1],"categories":[],"categories_nodes":[],"categories_segments":[],"categories_sizes":[],"default_left":[0,0,0,0,0,0,0,0,0,0,0,0,0,0,0,0,0,0,0,0,0,0,0,0,0,0,0,0,0,0,0,0,0,0,0,0,0,0,0,0,0,0,0,0,0,0,0,0,0,0,0,0,0,0,0,0,0,0,0,0,0,0,0,0,0,0,0,0,0,0,0,0,0,0,0,0,0,0,0,0,0,0,0,0,0,0,0,0,0,0,0,0,0,0,0,0,0,0,0,0,0,0,0,0,0,0,0,0,0],"id":3,"left_children":[1,3,5,7,9,11,13,15,17,19,21,23,25,27,-1,29,31,33,35,37,39,41,43,45,47,49,51,53,55,57,59,-1,61,63,65,67,-1,69,71,73,75,77,79,81,83,85,87,89,91,93,95,97,99,101,103,105,107,-1,-1,-1,-1,-1,-1,-1,-1,-1,-1,-1,-1,-1,-1,-1,-1,-1,-1,-1,-1,-1,-1,-1,-1,-1,-1,-1,-1,-1,-1,-1,-1,-1,-1,-1,-1,-1,-1,-1,-1,-1,-1,-1,-1,-1,-1,-1,-1,-1,-1,-1,-1],"loss_changes":[1.2823328E3,2.4713892E2,2.3866754E2,5.4944214E1,8.055114E1,2.9571556E1,7.8023254E1,2.2481506E1,6.0490723E0,2.4506325E1,3.7622025E1,6.8174825E0,1.5760513E1,6.2887466E1,0E0,1.6386414E1,9.8706055E-1,3.7443442E0,5.3779297E0,1.7781681E1,1.1535673E1,1.5757187E1,1.0725494E1,6.4266806E0,8.517619E0,7.8423634E0,1.651046E1,3.8080566E1,2.5434494E1,1.0857264E1,1.0400604E1,0E0,9.9142456E-1,4.3567443E-1,3.6082149E0,4.6724854E0,0E0,4.764963E0,2.2332573E0,1.5318789E1,1.1005926E0,7.771759E0,2.874916E0,3.7882643E0,1.1375208E1,6.0226135E0,6.6830482E0,4.5593786E0,5.5898423E0,9.067794E0,1.42527E1,5.4300537E0,7.720127E0,9.152985E0,4.2352356E1,2.267024E1,3.274149E0,0E0,0E0,0E0,0E0,0E0,0E0,0E0,0E0,0E0,0E0,0E0,0E0,0E0,0E0,0E0,0E0,0E0,0E0,0E0,0E0,0E0,0E0,0E0,0E0,0E0,0E0,0E0,0E0,0E0,0E0,0E0,0E0,0E0,0E0,0E0,0E0,0E0,0E0,0E0,0E0,0E0,0E0,0E0,0E0,0E0,0E0,0E0,0E0,0E0,0E0,0E0,0E0],"parents":[2147483647,0,0,1,1,2,2,3,3,4,4,5,5,6,6,7,7,8,8,9,9,10,10,11,11,12,12,13,13,15,15,16,16,17,17,18,18,19,19,20,20,21,21,22,22,23,23,24,24,25,25,26,26,27,27,28,28,29,29,30,30,32,32,33,33,34,34,35,35,37,37,38,38,39,39,40,40,41,41,42,42,43,43,44,44,45,45,46,46,47,47,48,48,49,49,50,50,51,51,52,52,53,53,54,54,55,55,56,56],"right_children":[2,4,6,8,10,12,14,16,18,20,22,24,26,28,-1,30,32,34,36,38,40,42,44,46,48,50,52,54,56,58,60,-1,62,64,66,68,-1,70,72,74,76,78,80,82,84,86,88,90,92,94,96,98,100,102,104,106,108,-1,-1,-1,-1,-1,-1,-1,-1,-1,-1,-1,-1,-1,-1,-1,-1,-1,-1,-1,-1,-1,-1,-1,-1,-1,-1,-1,-1,-1,-1,-1,-1,-1,-1,-1,-1,-1,-1,-1,-1,-1,-1,-1,-1,-1,-1,-1,-1,-1,-1,-1,-1],"split_conditions":[1E0,3.3035316E1,1.7982239E1,1.6155495E1,2E0,9.013878E0,2.294014E1,4.39765E-2,5.0263124E0,1E0,5.6635944E1,1.65E1,2.335E1,8.854942E0,3.421239E-1,8.354639E0,7.05195E0,2.2566668E1,2.48944E1,4.682415E1,1.1031773E1,6.202066E-2,0E0,1.3194695E1,1.5227472E1,1E0,2E0,7.7833333E0,2.0970574E-1,1.17046995E1,8.602325E0,-2.142897E-2,1.5066667E1,1E0,1E0,3.4866665E1,2.385313E-1,8.736704E0,1.3416408E0,6.2570866E1,3.4189846E1,2.9883333E1,6.9115844E0,5.4009256E0,1.9683332E1,1.1800424E1,1.215E1,2E0,4.0966667E1,2.9685367E-2,2.0700966E1,1.0121264E1,2.1333542E1,2E0,2E0,3.9768913E1,5.5E0,-1.728476E-1,-4.569214E-2,4.5325002E-1,-1.9702663E-1,-2.9330292E-1,-2.4559465E-1,-2.62376E-1,-8.126289E-3,-8.834966E-2,3.084876E-1,-2.9187497E-1,-2.522579E-1,-1.5447399E-1,1.4942418E-1,2.6738299E-2,5.281513E-1,-7.1228944E-2,1.9123457E-1,2.4246441E-1,1.0355394E-1,-1.6471648E-1,-7.1806714E-2,-9.204252E-2,-2.6398537E-1,-1.3623057E-1,6.722158E-2,-5.69527E-2,1.4151843E-1,1.9626522E-1,-1.6906005E-1,1.7422244E-1,5.9303695E-1,-1.5510523E-1,3.45691E-2,1.9469188E-1,-6.6133365E-2,6.3979544E-2,-2.2504814E-1,5.81675E-3,-1.21513E-1,6.779371E-2,-1.6906972E-1,-2.6380754E-4,-1.0805153E-1,3.3437553E-1,1.9345194E-1,5.9458364E-2,1.7153169E-1,3.4462206E-2,3.8999113E-1,3.963098E-2,-1.912961E-1],"split_indices":[0,5,5,9,8,9,9,6,5,2,5,3,3,9,0,9,4,3,5,5,9,6,0,4,5,2,0,3,6,4,4,0,3,8,2,3,0,4,9,5,5,3,4,9,3,4,3,0,3,6,9,9,9,8,0,5,3,0,0,0,0,0,0,0,0,0,0,0,0,0,0,0,0,0,0,0,0,0,0,0,0,0,0,0,0,0,0,0,0,0,0,0,0,0,0,0,0,0,0,0,0,0,0,0,0,0,0,0,0],"split_type":[0,0,0,0,0,0,0,0,0,0,0,0,0,0,0,0,0,0,0,0,0,0,0,0,0,0,0,0,0,0,0,0,0,0,0,0,0,0,0,0,0,0,0,0,0,0,0,0,0,0,0,0,0,0,0,0,0,0,0,0,0,0,0,0,0,0,0,0,0,0,0,0,0,0,0,0,0,0,0,0,0,0,0,0,0,0,0,0,0,0,0,0,0,0,0,0,0,0,0,0,0,0,0,0,0,0,0,0,0],"sum_hessian":[7.4380645E3,3.8451672E3,3.592897E3,2.9137434E3,9.3142395E2,1.092117E3,2.50078E3,1.2372456E3,1.6764978E3,2.7668704E2,6.5473694E2,1.1439314E2,9.777238E2,2.3876753E3,1.1310488E2,8.916546E2,3.4559097E2,1.1672737E1,1.6648251E3,9.9240074E1,1.7744698E2,4.9364664E2,1.6109029E2,3.325696E1,8.1136185E1,4.159008E2,5.61823E2,1.4189514E3,9.687238E2,2.4669841E2,6.449562E2,2.0005255E0,3.4359045E2,5.2037535E0,6.468983E0,1.6638022E3,1.0227726E0,8.548918E1,1.3750893E1,1.503563E2,2.7090689E1,3.553152E2,1.3833145E2,5.620315E1,1.0488714E2,1.4350553E1,1.890641E1,4.3641422E1,3.749476E1,9.865206E1,3.1724875E2,3.211078E2,2.4071523E2,1.8378424E2,1.2351671E3,9.135277E2,5.5196136E1,1.1011357E2,1.3658484E2,1.2838433E0,6.4367236E2,1.1238046E2,2.3120999E2,4.159903E0,1.0438504E0,3.8241925E0,2.644791E0,1.213402E3,4.504003E2,4.0376115E0,8.145157E1,1.1011634E0,1.264973E1,1.27674576E2,2.2681717E1,1.3271206E1,1.3819482E1,2.217485E2,1.3356667E2,1.1476802E1,1.2685465E2,4.7116135E1,9.087016E0,4.358949E1,6.1297646E1,7.9104223E0,6.4401307E0,1.4498952E1,4.407459E0,2.2082003E1,2.155942E1,2.8375967E1,9.118792E0,8.870219E1,9.949874E0,1.439065E2,1.7334224E2,8.273581E0,3.128342E2,1.1203399E2,1.2868124E2,7.874943E1,1.0503481E2,6.910062E2,5.4416095E2,8.9805707E2,1.547064E1,5.6208906E0,4.9575245E1],"tree_param":{"num_deleted":"0","num_feature":"10","num_nodes":"109","size_leaf_vector":"1"}},{"base_weights":[-2.1807174E-1,-5.8157444E-1,1.12915404E-1,-7.311071E-1,-1.7389493E-1,-7.14132E-2,2.9954487E-1,-5.595484E-1,-8.727609E-1,3.0160958E-1,-2.898583E-1,8.632151E-2,-2.2056842E-1,5.1836544E-1,1.45121E-1,-4.7247645E-1,-7.9926425E-1,-9.1703963E-1,-7.5565976E-1,-6.838884E-4,4.728228E-1,-1.9381475E-1,-7.394322E-1,1.3087413E-1,-4.358647E-1,-1.6243055E-1,-5.3875345E-1,5.470552E-1,-6.9160855E-1,3.9280552E-1,1.1996692E-2,-8.3476275E-1,-4.1611576E-1,-6.134771E-1,-8.3546376E-1,9.244264E-2,-9.188954E-1,2.8264904E-1,-7.738952E-1,2.458207E-1,-4.205332E-1,1.2272036E-1,6.747029E-1,-4.195509E-2,-4.081166E-1,-4.2089382E-1,-8.3261174E-1,-8.806598E-5,2.832892E-1,-6.9133097E-1,-2.8016114E-1,3.4257863E-2,-2.3787293E-1,-5.750938E-1,4.0284392E-1,3.163675E-1,7.040316E-1,6.9958635E-2,-8.122677E-1,3.1786406E-1,7.310657E-1,2.3433824E-1,-8.507393E-2,1.6786408E-3,-2.5488138E-1,-1.7678337E-1,-8.144257E-2,-2.7252543E-1,-8.551128E-2,-1.8317467E-1,-2.6474994E-1,-2.6390243E-1,-2.9561505E-1,4.7886306E-1,-7.612221E-2,-2.3876737E-1,-1.5800199E-2,-6.3267194E-2,1.395977E-1,3.439048E-2,-2.0803717E-1,9.727687E-2,-1.2446322E-1,2.3340733E-1,-9.804223E-2,-3.235078E-2,1.1133865E-1,-1.4174939E-2,-1.6744956E-1,2.2627986E-3,-1.7676577E-1,-1.0977953E-1,-2.6758054E-1,1.6417246E-1,-3.372561E-2,7.315217E-2,3.4385285E-1,4.6922404E-2,-2.24442E-1,-0E0,-1.7041108E-1,7.6039344E-2,-3.719698E-2,-2.2655476E-2,-1.2674268E-1,-1.5210134E-1,-2.8830197E-1,3.1502828E-1,-2.0537189E-1,3.0246826E-2,1.740891E-1,2.2132099E-1,3.9366208E-2,-5.3503327E-2,-2.9107448E-1,8.299455E-2,2.4926648E-1,4.1597062E-1,1.7690633E-1,2.4495903E-1,4.3284412E-2,-6.20926E-2,3.376502E-2],"categories":[],"categories_nodes":[],"categories_segments":[],"categories_sizes":[],"default_left":[0,0,0,0,0,0,0,0,0,0,0,0,0,0,0,0,0,0,0,0,0,0,0,0,0,0,0,0,0,0,0,0,0,0,0,0,0,0,0,0,0,0,0,0,0,0,0,0,0,0,0,0,0,0,0,0,0,0,0,0,0,0,0,0,0,0,0,0,0,0,0,0,0,0,0,0,0,0,0,0,0,0,0,0,0,0,0,0,0,0,0,0,0,0,0,0,0,0,0,0,0,0,0,0,0,0,0,0,0,0,0,0,0,0,0,0,0,0,0,0,0,0,0],"id":4,"left_children":[1,3,5,7,9,11,13,15,17,19,21,23,25,27,29,31,33,35,37,39,41,43,45,47,49,51,53,55,57,59,61,63,65,67,69,-1,71,73,75,77,79,81,83,85,87,89,91,93,95,97,99,101,103,105,107,109,111,-1,113,115,117,119,121,-1,-1,-1,-1,-1,-1,-1,-1,-1,-1,-1,-1,-1,-1,-1,-1,-1,-1,-1,-1,-1,-1,-1,-1,-1,-1,-1,-1,-1,-1,-1,-1,-1,-1,-1,-1,-1,-1,-1,-1,-1,-1,-1,-1,-1,-1,-1,-1,-1,-1,-1,-1,-1,-1,-1,-1,-1,-1,-1,-1],"loss_changes":[8.177947E2,1.9725513E2,1.22439606E2,5.6952515E1,4.8102448E1,4.2157837E1,5.9613678E1,2.1927887E1,5.8583374E0,8.900401E0,3.0020386E1,2.0281368E1,1.6877598E1,2.5738968E1,3.4193573E1,1.5681503E1,1.2566833E0,2.4699097E0,7.118805E0,6.603328E0,7.5705643E0,1.8778425E1,3.1693802E0,1.605924E1,2.433734E0,1.16074295E1,5.0931664E0,2.5555847E1,2.1768427E0,8.85733E0,1.4639591E1,1.4021912E0,1.695723E1,4.5258694E0,1.7974396E0,0E0,1.381958E0,5.388801E0,5.5200195E0,4.128174E0,3.5975246E0,4.613066E0,7.438572E0,9.272411E0,1.2893005E1,2.2304091E0,2.1433334E0,2.6615717E1,1.2227829E1,1.3808327E0,3.625356E0,7.566122E0,1.6836624E1,2.961235E0,4.800061E0,1.6454788E1,8.006439E0,0E0,1.2758827E0,5.980295E0,4.987461E0,1.0598613E1,1.139043E1,0E0,0E0,0E0,0E0,0E0,0E0,0E0,0E0,0E0,0E0,0E0,0E0,0E0,0E0,0E0,0E0,0E0,0E0,0E0,0E0,0E0,0E0,0E0,0E0,0E0,0E0,0E0,0E0,0E0,0E0,0E0,0E0,0E0,0E0,0E0,0E0,0E0,0E0,0E0,0E0,0E0,0E0,0E0,0E0,0E0,0E0,0E0,0E0,0E0,0E0,0E0,0E0,0E0,0E0,0E0,0E0,0E0,0E0,0E0,0E0],"parents":[2147483647,0,0,1,1,2,2,3,3,4,4,5,5,6,6,7,7,8,8,9,9,10,10,11,11,12,12,13,13,14,14,15,15,16,16,17,17,18,18,19,19,20,20,21,21,22,22,23,23,24,24,25,25,26,26,27,27,28,28,29,29,30,30,31,31,32,32,33,33,34,34,36,36,37,37,38,38,39,39,40,40,41,41,42,42,43,43,44,44,45,45,46,46,47,47,48,48,49,49,50,50,51,51,52,52,53,53,54,54,55,55,56,56,58,58,59,59,60,60,61,61,62,62],"right_children":[2,4,6,8,10,12,14,16,18,20,22,24,26,28,30,32,34,36,38,40,42,44,46,48,50,52,54,56,58,60,62,64,66,68,70,-1,72,74,76,78,80,82,84,86,88,90,92,94,96,98,100,102,104,106,108,110,112,-1,114,116,118,120,122,-1,-1,-1,-1,-1,-1,-1,-1,-1,-1,-1,-1,-1,-1,-1,-1,-1,-1,-1,-1,-1,-1,-1,-1,-1,-1,-1,-1,-1,-1,-1,-1,-1,-1,-1,-1,-1,-1,-1,-1,-1,-1,-1,-1,-1,-1,-1,-1,-1,-1,-1,-1,-1,-1,-1,-1,-1,-1,-1,-1],"split_conditions":[1E0,3.3035316E1,2.426094E1,1.640122E1,1E0,1.5657906E1,2E0,4.39765E-2,3.4866665E1,0E0,1.160115E-1,1.2756541E-1,4.1683334E1,2.3640224E-1,5.6222773E0,1.461542E1,8.764132E0,1.718284E1,6.3187075E0,2E0,1.2516666E1,3E0,6.9115844E0,2E0,1.7879627E1,1E0,3.7619278E1,3.3658962E1,1E0,7.3891396E1,1.65E1,8.15414E0,2.145E1,2.4133333E1,1E0,9.244264E-2,2.8199646E1,3.8E1,2.0661264E1,9.783334E0,2.395E1,2E0,1.6484071E-1,6.526845E1,6.606815E0,3E0,2E0,8.7E0,2.0602184E1,9.381365E0,2.1506418E1,1E0,2.108886E1,5.588602E-2,4.7423622E1,2E0,4.5466667E1,6.9958635E-2,1.2333333E1,4E0,7.7833333E0,1E0,1.161809E1,1.6786408E-3,-2.5488138E-1,-1.7678337E-1,-8.144257E-2,-2.7252543E-1,-8.551128E-2,-1.8317467E-1,-2.6474994E-1,-2.6390243E-1,-2.9561505E-1,4.7886306E-1,-7.612221E-2,-2.3876737E-1,-1.5800199E-2,-6.3267194E-2,1.395977E-1,3.439048E-2,-2.0803717E-1,9.727687E-2,-1.2446322E-1,2.3340733E-1,-9.804223E-2,-3.235078E-2,1.1133865E-1,-1.4174939E-2,-1.6744956E-1,2.2627986E-3,-1.7676577E-1,-1.0977953E-1,-2.6758054E-1,1.6417246E-1,-3.372561E-2,7.315217E-2,3.4385285E-1,4.6922404E-2,-2.24442E-1,-0E0,-1.7041108E-1,7.6039344E-2,-3.719698E-2,-2.2655476E-2,-1.2674268E-1,-1.5210134E-1,-2.8830197E-1,3.1502828E-1,-2.0537189E-1,3.0246826E-2,1.740891E-1,2.2132099E-1,3.9366208E-2,-5.3503327E-2,-2.9107448E-1,8.299455E-2,2.4926648E-1,4.1597062E-1,1.7690633E-1,2.4495903E-1,4.3284412E-2,-6.20926E-2,3.376502E-2],"split_indices":[0,5,5,9,2,9,8,6,3,0,6,6,3,6,9,5,9,4,5,8,3,8,4,0,5,8,9,5,2,5,3,4,3,3,2,0,4,3,5,3,3,8,6,5,4,8,8,3,4,4,5,2,9,6,4,0,3,0,3,0,3,2,4,0,0,0,0,0,0,0,0,0,0,0,0,0,0,0,0,0,0,0,0,0,0,0,0,0,0,0,0,0,0,0,0,0,0,0,0,0,0,0,0,0,0,0,0,0,0,0,0,0,0,0,0,0,0,0,0,0,0,0,0],"split_type":[0,0,0,0,0,0,0,0,0,0,0,0,0,0,0,0,0,0,0,0,0,0,0,0,0,0,0,0,0,0,0,0,0,0,0,0,0,0,0,0,0,0,0,0,0,0,0,0,0,0,0,0,0,0,0,0,0,0,0,0,0,0,0,0,0,0,0,0,0,0,0,0,0,0,0,0,0,0,0,0,0,0,0,0,0,0,0,0,0,0,0,0,0,0,0,0,0,0,0,0,0,0,0,0,0,0,0,0,0,0,0,0,0,0,0,0,0,0,0,0,0,0,0],"sum_hessian":[6.7951943E3,3.2383071E3,3.556887E3,2.3685195E3,8.697877E2,1.7895154E3,1.7673717E3,1.0737466E3,1.2947728E3,1.700479E2,6.997398E2,8.696225E2,9.198928E2,7.299786E2,1.0373932E3,7.9013446E2,2.836121E2,9.3394183E2,3.6083105E2,6.1635826E1,1.0841208E2,5.77929E2,1.2181081E2,8.021264E2,6.749607E1,7.793221E2,1.4057076E2,7.136868E2,1.6291737E1,3.6171054E2,6.756826E2,1.04274345E2,6.858601E2,4.9625927E1,2.3398618E2,1.0813707E0,9.328605E2,5.88286E0,3.5494818E2,3.8945953E1,2.2689873E1,4.041947E1,6.799261E1,3.392151E2,2.3871391E2,2.9059563E1,9.275124E1,4.3161008E2,3.7051633E2,2.40138E1,4.3482277E1,2.1583405E2,5.6348804E2,1.3582414E2,4.746612E0,2.9047144E2,4.232154E2,1.6769714E0,1.4614764E1,2.979378E2,6.3772724E1,2.0522595E2,4.7045667E2,1.703547E0,1.025708E2,3.104396E2,3.754205E2,2.5055546E1,2.4570381E1,4.3260902E1,1.9072527E2,5.9664166E2,3.362188E2,1.1868887E0,4.6959715E0,3.4420834E2,1.0739838E1,1.250701E1,2.6438944E1,7.7353797E0,1.49544935E1,2.9822428E1,1.0597045E1,6.1926872E1,6.065732E0,2.9340268E2,4.58124E1,7.068877E1,1.6802515E2,8.298528E0,2.0761034E1,1.1459182E1,8.129206E1,7.268609E1,3.5892398E2,3.556553E2,1.4861037E1,1.2874945E0,2.2726305E1,2.2426083E1,2.1056192E1,9.0501114E1,1.25332924E2,3.008482E2,2.626398E2,1.1764083E2,1.818331E1,3.054689E0,1.6919231E0,1.6086104E2,1.296104E2,3.992599E2,2.395551E1,3.466549E0,1.1148215E1,2.7738715E2,2.0550682E1,9.626111E0,5.4146614E1,2.6263395E1,1.7896257E2,2.9125754E2,1.7919914E2],"tree_param":{"num_deleted":"0","num_feature":"10","num_nodes":"123","size_leaf_vector":"1"}},{"base_weights":[-1.7510052E-1,-4.9579054E-1,7.892081E-2,-7.63503E-1,-2.7698117E-1,-1.3967186E-1,1.6575046E-1,-5.352407E-1,-8.1676763E-1,-1.7656162E-1,-6.3661027E-1,-8.316162E-2,-3.6414948E-1,4.3060675E-1,9.785651E-2,-8.0763257E-1,-3.7241033E-1,-5.2278224E-2,-8.242884E-1,5.236021E-3,-3.2151204E-1,-2.1050976E-1,-6.793461E-1,-1.00073926E-1,2.055811E0,9.2316276E-1,-4.2267096E-1,5.464557E-1,1.3846011E-1,5.68874E-2,4.0818125E-1,-0E0,-8.2448065E-1,-2.7291012E-1,-8.227122E-1,-4.5168626E-1,3.739791E-1,-8.686075E-1,-7.008282E-1,-2.473678E-1,1.6012767E-1,-4.296639E-1,3.5078052E-1,-8.5809666E-1,1.4027852E-1,-8.9738154E-1,-5.698757E-1,-3.594052E-2,-3.9272276E-1,1.0059392E0,8.3936274E-1,1.8880169E0,-6.233892E-1,8.998407E-1,-4.6139455E-1,3.7810564E-1,7.572076E-1,3.400725E-1,-1.005907E-1,4.3381996E-2,1.0549288E0,6.124273E-1,1.488527E-1,-2.527425E-1,-1.7794714E-3,-1.1395927E-1,7.931785E-2,-0E0,-2.5561816E-1,-2.4574092E-1,3.6442425E-2,3.3401906E-1,-1.4315015E-2,-2.7105272E-1,-2.3295106E-1,-2.3059578E-1,-9.106745E-2,4.5675885E-2,-9.626632E-2,-3.6405016E-2,1.04373075E-1,2.8129128E-1,-1.3293213E-1,-2.171133E-1,1.1221677E-1,-3.0124757E-1,-4.0778965E-2,1.7750698E-1,-1.1438927E-1,-1.5317789E-1,-2.7777135E-1,-1.1640448E-1,-2.0575298E-1,-8.2209244E-2,8.352258E-3,-2.8102958E-1,-9.51918E-2,5.513967E-1,3.789459E-2,2.1287027E-1,7.1260524E-1,-3.1935405E-2,-2.2448568E-1,6.9128484E-1,-1.6477782E-1,1.3515541E-2,-1.5185109E-1,2.3893222E-1,7.8974314E-2,2.3983042E-1,-7.4082003E-3,1.3057351E-1,-1.897281E-1,1.1370534E-1,-6.772657E-2,5.570488E-2,-8.244541E-3,2.4089566E-1,3.8804102E-1,2.2058402E-1,-2.1108333E-2,1.5593047E-1,-1.609737E-2],"categories":[],"categories_nodes":[],"categories_segments":[],"categories_sizes":[],"default_left":[0,0,0,0,0,0,0,0,0,0,0,0,0,0,0,0,0,0,0,0,0,0,0,0,0,0,0,0,0,0,0,0,0,0,0,0,0,0,0,0,0,0,0,0,0,0,0,0,0,0,0,0,0,0,0,0,0,0,0,0,0,0,0,0,0,0,0,0,0,0,0,0,0,0,0,0,0,0,0,0,0,0,0,0,0,0,0,0,0,0,0,0,0,0,0,0,0,0,0,0,0,0,0,0,0,0,0,0,0,0,0,0,0,0,0,0,0,0,0,0,0,0,0],"id":5,"left_children":[1,3,5,7,9,11,13,15,17,19,21,23,25,27,29,31,33,35,37,39,41,43,45,47,49,51,53,55,57,59,61,-1,63,65,67,69,71,73,75,77,79,81,83,85,87,89,91,93,95,97,-1,99,101,103,105,107,109,111,113,115,117,119,121,-1,-1,-1,-1,-1,-1,-1,-1,-1,-1,-1,-1,-1,-1,-1,-1,-1,-1,-1,-1,-1,-1,-1,-1,-1,-1,-1,-1,-1,-1,-1,-1,-1,-1,-1,-1,-1,-1,-1,-1,-1,-1,-1,-1,-1,-1,-1,-1,-1,-1,-1,-1,-1,-1,-1,-1,-1,-1,-1,-1],"loss_changes":[5.126467E2,1.6261328E2,6.667859E1,1.4627136E1,5.5142036E1,1.2592052E1,4.511422E1,1.02163925E1,5.684204E0,3.1639473E1,5.8475494E0,2.892811E1,1.5420195E1,1.7197372E1,2.5392483E1,1.2038727E0,6.4833164E0,2.0579195E0,4.713135E0,2.0875381E1,4.870321E1,7.4829807E0,6.5684204E0,1.4847526E1,1.6907158E0,1.4649538E1,1.0215797E1,1.2596832E1,7.1464634E0,2.371043E1,1.2180298E1,0E0,1.1888084E0,7.3699474E0,5.8896637E-1,1.4915934E0,1.959198E0,1.4835815E0,6.941742E0,6.0195704E0,1.7565737E1,1.0947998E1,2.5601873E0,9.6436787E-1,5.32692E0,4.7750854E-1,3.9417267E0,9.944801E0,5.418627E0,2.655661E0,0E0,1.3345604E0,1.0268772E-1,1.3110607E1,4.320629E0,9.57773E0,5.426491E0,7.682143E0,4.142313E0,1.76489E1,1.6392899E-1,1.1012245E1,7.904918E0,0E0,0E0,0E0,0E0,0E0,0E0,0E0,0E0,0E0,0E0,0E0,0E0,0E0,0E0,0E0,0E0,0E0,0E0,0E0,0E0,0E0,0E0,0E0,0E0,0E0,0E0,0E0,0E0,0E0,0E0,0E0,0E0,0E0,0E0,0E0,0E0,0E0,0E0,0E0,0E0,0E0,0E0,0E0,0E0,0E0,0E0,0E0,0E0,0E0,0E0,0E0,0E0,0E0,0E0,0E0,0E0,0E0,0E0,0E0,0E0],"parents":[2147483647,0,0,1,1,2,2,3,3,4,4,5,5,6,6,7,7,8,8,9,9,10,10,11,11,12,12,13,13,14,14,15,15,16,16,17,17,18,18,19,19,20,20,21,21,22,22,23,23,24,24,25,25,26,26,27,27,28,28,29,29,30,30,32,32,33,33,34,34,35,35,36,36,37,37,38,38,39,39,40,40,41,41,42,42,43,43,44,44,45,45,46,46,47,47,48,48,49,49,51,51,52,52,53,53,54,54,55,55,56,56,57,57,58,58,59,59,60,60,61,61,62,62],"right_children":[2,4,6,8,10,12,14,16,18,20,22,24,26,28,30,32,34,36,38,40,42,44,46,48,50,52,54,56,58,60,62,-1,64,66,68,70,72,74,76,78,80,82,84,86,88,90,92,94,96,98,-1,100,102,104,106,108,110,112,114,116,118,120,122,-1,-1,-1,-1,-1,-1,-1,-1,-1,-1,-1,-1,-1,-1,-1,-1,-1,-1,-1,-1,-1,-1,-1,-1,-1,-1,-1,-1,-1,-1,-1,-1,-1,-1,-1,-1,-1,-1,-1,-1,-1,-1,-1,-1,-1,-1,-1,-1,-1,-1,-1,-1,-1,-1,-1,-1,-1,-1,-1,-1],"split_conditions":[1E0,1.9204388E1,1.7982239E1,1.4961617E1,4.362644E-2,2.8876461E1,1E0,1.461542E1,5.0263124E0,7.4525166E0,4.5177426E0,2.7784887E1,6.3187075E0,1.46102705E1,5.526091E1,8.15414E0,6.808449E-2,1E0,1.5800338E1,1.915E1,2.081658E1,0E0,1.65E1,2.9685367E-2,2.8319605E1,4.7423622E1,2.343075E1,2E0,2.875E1,2.294014E1,2.6516666E1,-0E0,2.5285767E1,4.0216667E1,1.0198039E1,3.1645695E1,2.2975204E1,3.4683334E1,4.1316666E1,1E0,0E0,7.558439E0,4.6666667E-1,4.225E1,2.950367E-1,5.9105746E-2,8.764132E0,1.2820203E1,3.779162E-2,1E0,8.3936274E-1,3.7619278E1,1E0,1E0,5.5E0,9.066667E0,1.4019959E-1,1.2392716E-1,1.0204411E1,1.7616667E1,2E0,5E0,1E0,-2.527425E-1,-1.7794714E-3,-1.1395927E-1,7.931785E-2,-0E0,-2.5561816E-1,-2.4574092E-1,3.6442425E-2,3.3401906E-1,-1.4315015E-2,-2.7105272E-1,-2.3295106E-1,-2.3059578E-1,-9.106745E-2,4.5675885E-2,-9.626632E-2,-3.6405016E-2,1.04373075E-1,2.8129128E-1,-1.3293213E-1,-2.171133E-1,1.1221677E-1,-3.0124757E-1,-4.0778965E-2,1.7750698E-1,-1.1438927E-1,-1.5317789E-1,-2.7777135E-1,-1.1640448E-1,-2.0575298E-1,-8.2209244E-2,8.352258E-3,-2.8102958E-1,-9.51918E-2,5.513967E-1,3.789459E-2,2.1287027E-1,7.1260524E-1,-3.1935405E-2,-2.2448568E-1,6.9128484E-1,-1.6477782E-1,1.3515541E-2,-1.5185109E-1,2.3893222E-1,7.8974314E-2,2.3983042E-1,-7.4082003E-3,1.3057351E-1,-1.897281E-1,1.1370534E-1,-6.772657E-2,5.570488E-2,-8.244541E-3,2.4089566E-1,3.8804102E-1,2.2058402E-1,-2.1108333E-2,1.5593047E-1,-1.609737E-2],"split_indices":[0,5,5,9,6,4,2,5,5,9,9,9,5,4,5,4,6,2,5,3,9,0,3,6,9,4,9,0,3,9,3,0,4,3,4,4,4,3,3,2,0,4,3,3,6,6,9,5,6,1,0,9,1,8,3,3,6,6,9,3,0,8,1,0,0,0,0,0,0,0,0,0,0,0,0,0,0,0,0,0,0,0,0,0,0,0,0,0,0,0,0,0,0,0,0,0,0,0,0,0,0,0,0,0,0,0,0,0,0,0,0,0,0,0,0,0,0,0,0,0,0,0,0],"split_type":[0,0,0,0,0,0,0,0,0,0,0,0,0,0,0,0,0,0,0,0,0,0,0,0,0,0,0,0,0,0,0,0,0,0,0,0,0,0,0,0,0,0,0,0,0,0,0,0,0,0,0,0,0,0,0,0,0,0,0,0,0,0,0,0,0,0,0,0,0,0,0,0,0,0,0,0,0,0,0,0,0,0,0,0,0,0,0,0,0,0,0,0,0,0,0,0,0,0,0,0,0,0,0,0,0,0,0,0,0,0,0,0,0,0,0,0,0,0,0,0,0,0,0],"sum_hessian":[6.291078E3,2.7803982E3,3.5106802E3,1.249137E3,1.5312611E3,9.9756384E2,2.5131165E3,2.38781E2,1.010356E3,1.1983999E3,3.328612E2,7.983918E2,1.9917207E2,5.1138263E2,2.0017338E3,8.762421E1,1.511568E2,1.0049756E1,1.0003063E3,5.3175E2,6.666499E2,3.1094723E1,3.0176648E2,7.931208E2,5.2710342E0,7.9439282E0,1.9122815E2,3.653089E2,1.4607373E2,1.7696146E3,2.3211914E2,1.8140182E0,8.581019E1,1.25298546E2,2.585825E1,5.278595E0,4.771161E0,7.310371E2,2.6926913E2,2.0164926E2,3.3010074E2,5.747064E2,9.1943504E1,1.0517445E1,2.0577278E1,9.815575E1,2.0361073E2,6.517546E2,1.4136618E2,3.2140946E0,2.0569394E0,4.795812E0,3.1481159E0,4.7338767E0,1.8649428E2,2.0490108E2,1.604078E2,7.92397E1,6.683402E1,1.7471165E3,2.2498154E1,1.288725E2,1.0324664E2,8.3816246E1,1.9939469E0,1.0489713E2,2.0401413E1,1.0071031E0,2.4851147E1,3.0613177E0,2.2172773E0,1.2232028E0,3.5479581E0,5.229696E2,2.0806747E2,2.2898831E2,4.028083E1,3.0955914E1,1.7069334E2,1.3202396E2,1.980768E2,4.853674E0,5.698528E2,1.2202823E0,9.072322E1,8.308132E0,2.2093127E0,1.10612955E1,9.515983E0,8.280066E0,8.987568E1,8.130929E1,1.22301445E2,1.3734166E2,5.144129E2,1.5658869E1,1.2570731E2,1.0333917E0,2.180703E0,2.181594E0,2.6142185E0,1.1288527E0,2.0192633E0,2.1393335E0,2.594543E0,1.4967006E1,1.7152727E2,4.2672985E1,1.622281E2,1.5228882E2,8.11899E0,7.2773125E1,6.46658E0,1.3246946E1,5.358708E1,5.8073627E2,1.1663801E3,1.32690525E1,9.2291E0,1.0927962E2,1.9592882E1,3.6083603E1,6.716304E1],"tree_param":{"num_deleted":"0","num_feature":"10","num_nodes":"123","size_leaf_vector":"1"}},{"base_weights":[-1.3808893E-1,-4.1475487E-1,5.6103505E-2,-6.9018483E-1,-2.1953137E-1,3.9586697E-2,7.1805423E-1,-4.4980225E-1,-7.507509E-1,-1.3737464E-1,-5.473107E-1,1.3348667E-1,-1.0788E-1,7.928557E-1,-5.3317755E-1,-7.362019E-1,-2.9453123E-1,-8.096026E-1,-6.2273085E-1,-0E0,-2.5689483E-1,-2.2959119E-1,-6.0432893E-1,5.742021E-1,1.13061205E-1,-5.098437E-3,-2.2266313E-1,8.104052E-1,-1.7371273E-2,-2.4063216E-1,1.43758E-2,-2.823486E-1,-7.890244E-1,-2.0750697E-1,-7.5037897E-1,-7.514432E-1,-9.104311E-1,-5.1792943E-1,-8.77759E-1,-1.5384446E-1,1.5710318E-1,-3.4539655E-1,2.4795218E-1,2.1301465E-2,-5.143839E-1,-7.6545167E-1,-4.6984792E-1,9.531381E-2,8.6449766E-1,2.2714716E-1,4.0065654E-2,6.245926E-1,-2.1644518E-2,-3.724671E-1,-5.4708842E-2,4.0616482E-1,7.4024886E-1,-2.132245E-1,1.2918173E-1,-2.4383734E-1,-1.4256786E-3,-9.079188E-2,5.8646895E-2,-6.755513E-2,-2.5698328E-1,1.0197401E-2,-2.2722073E-1,-1.6475907E-1,-2.8007704E-1,1.1844222E-1,-1.6435689E-1,-2.667229E-1,-4.9467655E-3,-5.6447707E-2,1.9038594E-1,-3.2632027E-2,9.90932E-2,-2.0170374E-1,-8.514741E-2,-3.4387868E-2,8.951113E-2,-9.7284004E-2,6.1681572E-2,1.3022849E-1,-1.9561213E-1,-1.6677444E-1,-2.6106006E-1,-2.0044276E-1,-8.654333E-2,8.251275E-2,-2.541366E-1,2.8212574E-1,-2.929119E-1,4.511445E-2,1.2492832E-1,2.4148759E-2,-9.3711734E-2,-1.6087717E-1,3.1798047E-1,-7.5097874E-2,1.0137387E-2,-9.217038E-2,-1.870869E-1,1.2991867E-2,-7.807827E-2,2.5571296E-1,1.8138643E-1],"categories":[],"categories_nodes":[],"categories_segments":[],"categories_sizes":[],"default_left":[0,0,0,0,0,0,0,0,0,0,0,0,0,0,0,0,0,0,0,0,0,0,0,0,0,0,0,0,0,0,0,0,0,0,0,0,0,0,0,0,0,0,0,0,0,0,0,0,0,0,0,0,0,0,0,0,0,0,0,0,0,0,0,0,0,0,0,0,0,0,0,0,0,0,0,0,0,0,0,0,0,0,0,0,0,0,0,0,0,0,0,0,0,0,0,0,0,0,0,0,0,0,0,0,0,0,0],"id":6,"left_children":[1,3,5,7,9,11,13,15,17,19,21,23,25,27,29,31,33,35,37,39,41,43,45,47,49,51,53,55,-1,-1,-1,57,59,61,63,65,67,69,71,73,75,77,79,81,83,85,87,89,91,93,95,97,99,101,103,-1,105,-1,-1,-1,-1,-1,-1,-1,-1,-1,-1,-1,-1,-1,-1,-1,-1,-1,-1,-1,-1,-1,-1,-1,-1,-1,-1,-1,-1,-1,-1,-1,-1,-1,-1,-1,-1,-1,-1,-1,-1,-1,-1,-1,-1,-1,-1,-1,-1,-1,-1],"loss_changes":[3.1710474E2,1.3063892E2,3.781287E1,1.42317505E1,3.826075E1,4.6886806E1,8.331276E0,8.835506E0,5.410675E0,1.8726164E1,4.945114E0,1.8489876E1,1.5512879E1,1.3158226E0,9.379517E-1,1.3838387E0,5.119625E0,2.3572693E0,6.304039E0,1.2896607E1,2.736274E1,3.2955875E0,4.7378387E0,1.249666E1,1.644223E1,7.2077065E0,1.55781765E1,1.7819748E0,0E0,0E0,0E0,3.1461968E0,1.093853E0,4.488644E0,8.7826633E-1,1.7514801E0,9.680939E-1,5.302494E0,6.1075974E-1,7.376568E0,1.2203034E1,1.0178417E1,1.7241731E0,1.6372957E0,3.1032805E0,1.7373161E0,4.540352E0,6.216642E0,8.812649E0,1.108783E1,1.7220497E1,9.568849E0,8.645173E0,5.0907707E0,5.9676332E0,0E0,4.3245697E-1,0E0,0E0,0E0,0E0,0E0,0E0,0E0,0E0,0E0,0E0,0E0,0E0,0E0,0E0,0E0,0E0,0E0,0E0,0E0,0E0,0E0,0E0,0E0,0E0,0E0,0E0,0E0,0E0,0E0,0E0,0E0,0E0,0E0,0E0,0E0,0E0,0E0,0E0,0E0,0E0,0E0,0E0,0E0,0E0,0E0,0E0,0E0,0E0,0E0,0E0],"parents":[2147483647,0,0,1,1,2,2,3,3,4,4,5,5,6,6,7,7,8,8,9,9,10,10,11,11,12,12,13,13,14,14,15,15,16,16,17,17,18,18,19,19,20,20,21,21,22,22,23,23,24,24,25,25,26,26,27,27,31,31,32,32,33,33,34,34,35,35,36,36,37,37,38,38,39,39,40,40,41,41,42,42,43,43,44,44,45,45,46,46,47,47,48,48,49,49,50,50,51,51,52,52,53,53,54,54,56,56],"right_children":[2,4,6,8,10,12,14,16,18,20,22,24,26,28,30,32,34,36,38,40,42,44,46,48,50,52,54,56,-1,-1,-1,58,60,62,64,66,68,70,72,74,76,78,80,82,84,86,88,90,92,94,96,98,100,102,104,-1,106,-1,-1,-1,-1,-1,-1,-1,-1,-1,-1,-1,-1,-1,-1,-1,-1,-1,-1,-1,-1,-1,-1,-1,-1,-1,-1,-1,-1,-1,-1,-1,-1,-1,-1,-1,-1,-1,-1,-1,-1,-1,-1,-1,-1,-1,-1,-1,-1,-1,-1],"split_conditions":[1E0,1.9076454E1,5E1,1.4961617E1,4.362644E-2,1.1684606E1,2.9627352E1,1.461542E1,3.355E1,7.4525166E0,7.156815E0,4.6238513E0,2.7283333E1,8.324702E-3,3.43E1,1.1045361E1,6.770587E-2,2.8199646E1,1.532122E-2,2.5933332E1,2.081658E1,2.9870328E-1,2.315E1,2.6683328E0,1E0,8.377763E0,2E0,3.3658962E1,-1.7371273E-2,-2.4063216E-1,1.43758E-2,1.1793193E1,2.5285767E1,4.0216667E1,1E0,5.0263124E0,8.793308E0,6.3187075E0,5.0333332E1,9.554616E1,0E0,7.9666667E0,-1E0,9.60319E-2,7.2166667E0,1.3025554E-1,0E0,4.1316666E1,6E0,1.3092364E1,4E0,2.2760712E1,1.3264849E1,3.293532E-2,4.2033333E1,4.0616482E-1,2.2783333E1,-2.132245E-1,1.2918173E-1,-2.4383734E-1,-1.4256786E-3,-9.079188E-2,5.8646895E-2,-6.755513E-2,-2.5698328E-1,1.0197401E-2,-2.2722073E-1,-1.6475907E-1,-2.8007704E-1,1.1844222E-1,-1.6435689E-1,-2.667229E-1,-4.9467655E-3,-5.6447707E-2,1.9038594E-1,-3.2632027E-2,9.90932E-2,-2.0170374E-1,-8.514741E-2,-3.4387868E-2,8.951113E-2,-9.7284004E-2,6.1681572E-2,1.3022849E-1,-1.9561213E-1,-1.6677444E-1,-2.6106006E-1,-2.0044276E-1,-8.654333E-2,8.251275E-2,-2.541366E-1,2.8212574E-1,-2.929119E-1,4.511445E-2,1.2492832E-1,2.4148759E-2,-9.3711734E-2,-1.6087717E-1,3.1798047E-1,-7.5097874E-2,1.0137387E-2,-9.217038E-2,-1.870869E-1,1.2991867E-2,-7.807827E-2,2.5571296E-1,1.8138643E-1],"split_indices":[0,5,9,9,6,9,4,5,3,9,4,4,3,6,3,4,6,4,6,3,9,6,3,9,1,5,0,5,0,0,0,5,4,3,2,5,5,5,3,5,0,3,0,6,3,6,0,3,8,4,8,4,5,6,3,0,3,0,0,0,0,0,0,0,0,0,0,0,0,0,0,0,0,0,0,0,0,0,0,0,0,0,0,0,0,0,0,0,0,0,0,0,0,0,0,0,0,0,0,0,0,0,0,0,0,0,0],"split_type":[0,0,0,0,0,0,0,0,0,0,0,0,0,0,0,0,0,0,0,0,0,0,0,0,0,0,0,0,0,0,0,0,0,0,0,0,0,0,0,0,0,0,0,0,0,0,0,0,0,0,0,0,0,0,0,0,0,0,0,0,0,0,0,0,0,0,0,0,0,0,0,0,0,0,0,0,0,0,0,0,0,0,0,0,0,0,0,0,0,0,0,0,0,0,0,0,0,0,0,0,0,0,0,0,0,0,0],"sum_hessian":[5.90011E3,2.43308E3,3.4670295E3,1.0079591E3,1.425121E3,3.3838086E3,8.322098E1,2.0488051E2,8.0307855E2,1.1408861E3,2.8423486E2,2.0678623E3,1.3159463E3,7.894757E1,4.2734013E0,7.048482E1,1.343957E2,5.459818E2,2.5709674E2,5.31603E2,6.0928314E2,4.4279408E1,2.3995546E2,9.017476E1,1.9776876E3,6.952797E2,6.2066656E2,7.7513596E1,1.4339749E0,2.779031E0,1.4943705E0,8.207136E0,6.227768E1,1.14257744E2,2.0137955E1,3.5224564E2,1.9373619E2,1.8464256E2,7.2454185E1,2.6887943E2,2.6272363E2,5.188419E2,9.04412E1,2.3845984E1,2.0433424E1,1.06691734E2,1.3326372E2,3.4663937E1,5.5510822E1,7.702966E2,1.207391E3,1.670611E1,6.785736E2,3.2710114E2,2.935654E2,6.607105E0,7.0906494E1,5.21619E0,2.9909463E0,6.0286865E1,1.990815E0,9.283904E1,2.1418705E1,4.0712695E0,1.6066685E1,2.4906337E0,3.4975497E2,1.3421382E1,1.8031482E2,5.368717E0,1.7927385E2,7.1368004E1,1.0861822E0,2.5851675E2,1.0362656E1,1.0355676E2,1.5916685E2,8.039539E1,4.3844656E2,1.0643378E1,7.979782E1,7.841185E0,1.6004797E1,2.2247267E0,1.8208696E1,3.7979694E1,6.871204E1,6.21161E1,7.114762E1,2.9795923E1,4.8680134E0,5.3834057E1,1.6767658E0,5.496857E2,2.2061084E2,1.0840847E3,1.23306274E2,4.4305196E0,1.227559E1,1.3206642E2,5.465072E2,2.6174084E2,6.5360306E1,1.9898471E2,9.458069E1,3.5519424E1,3.538707E1],"tree_param":{"num_deleted":"0","num_feature":"10","num_nodes":"107","size_leaf_vector":"1"}},{"base_weights":[-1.0755876E-1,-3.3954212E-1,3.928811E-2,-6.891847E-1,-2.026629E-1,2.6983293E-2,6.0017914E-1,-5.3455234E-1,-7.4182796E-1,-1.3076925E-1,-4.975982E-1,1.1460964E-1,-6.2417865E-2,6.61345E-1,-5.730622E-1,-6.878909E-1,-3.4669346E-1,-2.5974843E-1,-7.658821E-1,-3.0273438E-1,-4.50842E-2,-5.859739E-1,-2.5572217E-1,1.3399433E-1,-2.3367627E-1,8.213482E-1,-7.1123324E-2,8.408553E-1,5.082139E-1,-2.0782608E-1,-3.0849257E-2,-1.0266299E-1,-7.1561635E-1,5.036601E-1,-4.203729E-1,-5.773901E-1,1.3860875E-1,-6.276022E-1,-8.2099223E-1,-5.8163124E-1,-1.8691427E-1,-2.3955072E-1,8.5334554E-2,-7.690464E-1,-5.0105345E-1,-3.080806E-1,7.83536E-1,2.0885849E-1,4.4117287E-2,-6.1159825E-1,-7.5682126E-2,9.7465944E-1,-5.1870607E-2,1.7808072E-2,-1.4703092E-1,5.8223385E-1,3.5582882E-1,3.2837003E-1,3.0784678E-1,-1.6016315E-1,2.2747E-1,-2.1951392E-1,-1.1198359E-2,4.7208494E-1,-5.702709E-2,-9.014305E-2,-2.623287E-1,-5.3276442E-2,-2.3449741E-1,2.5924793E-1,-1.1370598E-1,-2.0750938E-1,6.688937E-3,-2.6713413E-1,-2.0002937E-1,-1.4421785E-1,-2.4213111E-1,-2.3198301E-2,-1.3948637E-1,-8.482401E-3,-1.1801008E-1,9.2256265E-3,1.5148643E-1,1.143987E-1,-2.3826326E-1,-2.0807375E-1,-1.0527829E-1,-1.6032798E-2,-1.2688096E-1,-3.9368942E-2,5.6801903E-1,8.100356E-2,3.7094876E-3,-3.5752304E-2,5.927023E-2,-2.7708805E-1,-8.027734E-2,3.0952173E-1,-4.382229E-2,3.6124814E-1,6.591135E-2,5.1420305E-2,-9.309936E-3,-7.7129E-2,-8.214603E-3,1.0425937E-1,2.6178885E-1,8.765276E-5,1.5901372E-1],"categories":[],"categories_nodes":[],"categories_segments":[],"categories_sizes":[],"default_left":[0,0,0,0,0,0,0,0,0,0,0,0,0,0,0,0,0,0,0,0,0,0,0,0,0,0,0,0,0,0,0,0,0,0,0,0,0,0,0,0,0,0,0,0,0,0,0,0,0,0,0,0,0,0,0,0,0,0,0,0,0,0,0,0,0,0,0,0,0,0,0,0,0,0,0,0,0,0,0,0,0,0,0,0,0,0,0,0,0,0,0,0,0,0,0,0,0,0,0,0,0,0,0,0,0,0,0,0,0],"id":7,"left_children":[1,3,5,7,9,11,13,15,17,19,21,23,25,27,29,31,33,35,37,39,41,43,45,47,49,51,53,55,57,-1,-1,59,61,63,65,67,69,71,73,75,77,79,81,83,85,87,89,91,93,95,97,99,-1,101,103,105,-1,107,-1,-1,-1,-1,-1,-1,-1,-1,-1,-1,-1,-1,-1,-1,-1,-1,-1,-1,-1,-1,-1,-1,-1,-1,-1,-1,-1,-1,-1,-1,-1,-1,-1,-1,-1,-1,-1,-1,-1,-1,-1,-1,-1,-1,-1,-1,-1,-1,-1,-1,-1],"loss_changes":[1.9104166E2,1.0380223E2,2.362139E1,4.449066E0,3.3030327E1,2.6346031E1,5.662079E0,4.24469E0,4.948105E0,1.850162E1,6.3038254E0,1.1488749E1,1.2785397E1,1.3729515E0,7.976961E-2,1.2459221E0,4.83142E0,3.0627928E0,2.6204376E0,1.3320141E1,2.138605E1,2.953415E0,4.7604237E0,1.0797646E1,5.237547E0,2.7178583E0,1.1145772E1,1.8629684E0,3.3298893E0,0E0,0E0,2.326438E0,7.9239655E-1,5.066817E0,3.3559637E0,8.477826E-1,4.4962115E0,5.390835E0,2.5074615E0,2.2579079E0,8.963891E0,1.0947195E1,1.1481676E1,2.3241463E0,4.1474457E0,2.2901716E0,4.704939E0,1.0511681E1,1.8409746E1,2.4353094E0,5.093544E0,2.0659294E0,0E0,5.71719E0,1.1688318E1,9.114747E-1,0E0,2.0583408E0,0E0,0E0,0E0,0E0,0E0,0E0,0E0,0E0,0E0,0E0,0E0,0E0,0E0,0E0,0E0,0E0,0E0,0E0,0E0,0E0,0E0,0E0,0E0,0E0,0E0,0E0,0E0,0E0,0E0,0E0,0E0,0E0,0E0,0E0,0E0,0E0,0E0,0E0,0E0,0E0,0E0,0E0,0E0,0E0,0E0,0E0,0E0,0E0,0E0,0E0,0E0],"parents":[2147483647,0,0,1,1,2,2,3,3,4,4,5,5,6,6,7,7,8,8,9,9,10,10,11,11,12,12,13,13,14,14,15,15,16,16,17,17,18,18,19,19,20,20,21,21,22,22,23,23,24,24,25,25,26,26,27,27,28,28,31,31,32,32,33,33,34,34,35,35,36,36,37,37,38,38,39,39,40,40,41,41,42,42,43,43,44,44,45,45,46,46,47,47,48,48,49,49,50,50,51,51,53,53,54,54,55,55,57,57],"right_children":[2,4,6,8,10,12,14,16,18,20,22,24,26,28,30,32,34,36,38,40,42,44,46,48,50,52,54,56,58,-1,-1,60,62,64,66,68,70,72,74,76,78,80,82,84,86,88,90,92,94,96,98,100,-1,102,104,106,-1,108,-1,-1,-1,-1,-1,-1,-1,-1,-1,-1,-1,-1,-1,-1,-1,-1,-1,-1,-1,-1,-1,-1,-1,-1,-1,-1,-1,-1,-1,-1,-1,-1,-1,-1,-1,-1,-1,-1,-1,-1,-1,-1,-1,-1,-1,-1,-1,-1,-1,-1,-1],"split_conditions":[1E0,1.6333508E1,5E1,1.8768324E1,3.9514054E-2,9.602083E0,4.7423622E1,1.41325E1,8.377763E0,1.6683332E1,3.8237995E1,2.7786362E-1,1.0480935E1,1.915E1,3.43E1,5.0263124E0,4.5177426E0,2.9533333E1,1E0,2.3560627E1,0E0,1.6116667E1,4.79E1,2.8383333E1,3.5579816E-1,3.1210922E-2,2.3533333E1,2E0,4.295E1,-2.0782608E-1,-3.0849257E-2,1.5415901E1,2.5285767E1,1E0,6.975924E-2,1E0,3.8E1,1.5477847E1,3.355E1,1.7760912E1,3E0,2E0,4.44E1,8.045496E0,0E0,1.4956862E-1,7.930952E0,3E0,2E0,6.8622155E0,2.4186773E0,2E0,-5.1870607E-2,1E0,2E0,9.433333E0,3.5582882E-1,1E0,3.0784678E-1,-1.6016315E-1,2.2747E-1,-2.1951392E-1,-1.1198359E-2,4.7208494E-1,-5.702709E-2,-9.014305E-2,-2.623287E-1,-5.3276442E-2,-2.3449741E-1,2.5924793E-1,-1.1370598E-1,-2.0750938E-1,6.688937E-3,-2.6713413E-1,-2.0002937E-1,-1.4421785E-1,-2.4213111E-1,-2.3198301E-2,-1.3948637E-1,-8.482401E-3,-1.1801008E-1,9.2256265E-3,1.5148643E-1,1.143987E-1,-2.3826326E-1,-2.0807375E-1,-1.0527829E-1,-1.6032798E-2,-1.2688096E-1,-3.9368942E-2,5.6801903E-1,8.100356E-2,3.7094876E-3,-3.5752304E-2,5.927023E-2,-2.7708805E-1,-8.027734E-2,3.0952173E-1,-4.382229E-2,3.6124814E-1,6.591135E-2,5.1420305E-2,-9.309936E-3,-7.7129E-2,-8.214603E-3,1.0425937E-1,2.6178885E-1,8.765276E-5,1.5901372E-1],"split_indices":[0,5,9,9,6,9,4,5,5,3,5,6,4,3,3,5,9,3,8,5,0,3,3,3,6,6,3,0,3,0,0,9,4,2,6,2,3,5,3,9,8,8,3,4,0,6,4,8,0,9,9,8,0,2,0,3,0,1,0,0,0,0,0,0,0,0,0,0,0,0,0,0,0,0,0,0,0,0,0,0,0,0,0,0,0,0,0,0,0,0,0,0,0,0,0,0,0,0,0,0,0,0,0,0,0,0,0,0,0],"split_type":[0,0,0,0,0,0,0,0,0,0,0,0,0,0,0,0,0,0,0,0,0,0,0,0,0,0,0,0,0,0,0,0,0,0,0,0,0,0,0,0,0,0,0,0,0,0,0,0,0,0,0,0,0,0,0,0,0,0,0,0,0,0,0,0,0,0,0,0,0,0,0,0,0,0,0,0,0,0,0,0,0,0,0,0,0,0,0,0,0,0,0,0,0,0,0,0,0,0,0,0,0,0,0,0,0,0,0,0,0],"sum_hessian":[5.6057075E3,2.172709E3,3.4329985E3,6.099345E2,1.5627745E3,3.3605022E3,7.249625E1,1.5822476E2,4.5170978E2,1.2579244E3,3.048501E2,1.6975192E3,1.662983E3,6.9399704E1,3.0965457E0,8.5357895E1,7.286686E1,2.2225885E1,4.294839E2,4.1710922E2,8.408152E2,2.2192717E2,8.2922935E1,1.6088757E3,8.864345E1,1.5198681E1,1.6477843E3,2.9579998E1,3.9819702E1,1.9215579E0,1.1749878E0,4.2368255E0,8.112107E1,5.236621E0,6.763024E1,1.2255339E1,9.970547E0,1.2643697E2,3.030469E2,1.20957115E2,2.961521E2,3.375005E2,5.033147E2,6.739742E1,1.5452975E2,7.970703E1,3.2159064E0,8.7641705E2,7.324587E2,2.510009E1,6.354336E1,1.3272388E1,1.9262922E0,7.5854285E2,8.8924146E2,1.8613016E1,1.0966982E1,3.0912937E1,8.906766E0,3.1533577E0,1.0834678E0,7.901964E1,2.1014342E0,1.6176395E0,3.6189814E0,5.499144E1,1.2638803E1,4.94186E0,7.3134785E0,3.9531775E0,6.0173693E0,1.15168175E2,1.1268799E1,2.0521048E2,9.783643E1,8.603133E1,3.492579E1,2.1360124E2,8.2550865E1,1.4296423E2,1.9453624E2,4.4654196E2,5.6772743E1,1.054709E0,6.634271E1,6.582621E1,8.870354E1,2.5502789E1,5.4204243E1,2.196869E0,1.0190375E0,6.6772296E2,2.0869409E2,3.546427E2,3.7781595E2,1.212585E1,1.2974239E1,2.8965614E0,6.06468E1,9.62039E0,3.6519988E0,1.8290186E2,5.7564105E2,4.621356E2,4.2710587E2,1.1698887E1,6.9141293E0,1.2338483E1,1.8574453E1],"tree_param":{"num_deleted":"0","num_feature":"10","num_nodes":"109","size_leaf_vector":"1"}},{"base_weights":[-8.2436785E-2,-2.7115527E-1,2.8039329E-2,-6.1250937E-1,-1.5502074E-1,-1.6326721E-1,5.5717487E-2,-7.8564125E-1,-5.5580115E-1,-8.7205075E-2,-3.7569162E-1,3.142987E-2,-2.3483974E-1,2.7797467E-1,2.4316762E-2,2.0205535E-2,-7.987081E-1,-2.5540704E-1,-6.1262286E-1,1.3135326E-1,-1.451632E-1,-1.4744306E-1,-5.1808655E-1,1.4706175E-1,-4.58393E-1,-3.593508E-1,-7.792529E-2,4.7440958E-1,1.4822869E-1,-5.2538835E-3,2.441582E-1,-8.1089526E-1,-1.3908489E-1,9.80387E-1,-4.1383025E-1,-7.096004E-2,-6.408178E-1,-5.5160653E-2,2.7958128E-1,-7.770989E-2,-3.0606955E-1,-2.2694276E-1,8.95997E-1,-1.5635188E-1,-6.0265416E-1,-5.487322E-1,1.873797E-1,-5.9169686E-1,7.124864E-2,-2.75077E-1,-4.8756087E-1,-0E0,-3.890186E-1,3.03373E-1,6.811958E-1,1.2501709E-1,1.0913099E0,1.1630972E-2,-2.8445682E-1,2.0708254E-1,7.8860474E-1,-2.452187E-1,-7.45557E-3,-1.722405E-1,1.2471777E-1,4.0486217E-1,-1.5235205E-1,-1.9689973E-1,-5.4966573E-2,-2.4409422E-1,3.2974437E-2,-1.7291093E-1,-2.4341577E-1,-1.331257E-1,2.8467987E-2,9.891619E-2,-1.4484523E-1,-3.906195E-2,1.00143105E-1,-1.1052313E-1,8.801744E-2,-0E0,-1.22045726E-1,-1.9093096E-1,4.020114E-1,1.782358E-1,-9.652303E-2,1.5978311E-1,-1.8574569E-1,3.648323E-2,-2.490277E-1,1.3797595E-1,1.1838286E-2,-2.6797312E-1,-4.1666918E-2,1.8193719E-1,-1.8981409E-1,-1.11317605E-1,2.0031404E-1,-2.593925E-1,-1.02405556E-1,-2.052087E-1,1.5803581E-2,1.1120195E-1,-1.4168012E-1,1.2953599E-1,-6.2430322E-2,3.937833E-1,1.6143025E-1,6.1466787E-2,-5.0427873E-2,1.0960285E-1,3.889067E-1,-6.0840924E-3,4.644235E-2,-9.682068E-3,-1.4465058E-1,9.493002E-2,1.1339592E-2,2.8965145E-1,-1.12126544E-1],"categories":[],"categories_nodes":[],"categories_segments":[],"categories_sizes":[],"default_left":[0,0,0,0,0,0,0,0,0,0,0,0,0,0,0,0,0,0,0,0,0,0,0,0,0,0,0,0,0,0,0,0,0,0,0,0,0,0,0,0,0,0,0,0,0,0,0,0,0,0,0,0,0,0,0,0,0,0,0,0,0,0,0,0,0,0,0,0,0,0,0,0,0,0,0,0,0,0,0,0,0,0,0,0,0,0,0,0,0,0,0,0,0,0,0,0,0,0,0,0,0,0,0,0,0,0,0,0,0,0,0,0,0,0,0,0,0,0,0,0,0],"id":8,"left_children":[1,3,5,7,9,11,13,15,17,19,21,23,25,27,29,-1,31,33,35,37,39,41,43,45,47,49,51,53,55,57,59,61,63,65,67,69,71,73,75,77,79,81,83,85,87,89,91,93,95,97,99,101,103,105,107,109,111,113,115,117,119,-1,-1,-1,-1,-1,-1,-1,-1,-1,-1,-1,-1,-1,-1,-1,-1,-1,-1,-1,-1,-1,-1,-1,-1,-1,-1,-1,-1,-1,-1,-1,-1,-1,-1,-1,-1,-1,-1,-1,-1,-1,-1,-1,-1,-1,-1,-1,-1,-1,-1,-1,-1,-1,-1,-1,-1,-1,-1,-1,-1],"loss_changes":[1.1233748E2,7.8694855E1,1.799199E1,4.3819885E0,2.2158234E1,6.0101433E0,2.0690163E1,1.4824142E0,6.3086166E0,1.4439523E1,1.1189053E1,6.6009684E0,6.0710106E0,9.225105E0,1.6951801E1,0E0,7.566452E-1,1.2693519E1,4.7978745E0,6.63853E0,9.712057E0,1.1386324E1,6.377693E0,2.7230325E0,1.6625438E0,1.6769009E0,3.3920374E0,4.8333473E0,4.62076E0,1.0852874E1,5.97707E0,4.9552917E-1,1.1071005E0,4.829336E0,2.9645824E0,2.4732406E0,2.7527008E0,6.27291E0,5.2468023E0,1.3769767E1,1.0027351E1,5.16254E0,7.5333753E0,5.3934703E0,3.5770035E0,1.1723676E0,3.5756862E0,2.2311888E0,2.343411E0,1.0005528E1,3.3063507E0,4.164041E0,1.9598846E0,5.4706736E0,4.954563E0,5.1594453E0,1.2249136E-1,9.909933E0,6.4789934E0,5.338419E0,4.3639994E0,0E0,0E0,0E0,0E0,0E0,0E0,0E0,0E0,0E0,0E0,0E0,0E0,0E0,0E0,0E0,0E0,0E0,0E0,0E0,0E0,0E0,0E0,0E0,0E0,0E0,0E0,0E0,0E0,0E0,0E0,0E0,0E0,0E0,0E0,0E0,0E0,0E0,0E0,0E0,0E0,0E0,0E0,0E0,0E0,0E0,0E0,0E0,0E0,0E0,0E0,0E0,0E0,0E0,0E0,0E0,0E0,0E0,0E0,0E0,0E0],"parents":[2147483647,0,0,1,1,2,2,3,3,4,4,5,5,6,6,7,7,8,8,9,9,10,10,11,11,12,12,13,13,14,14,16,16,17,17,18,18,19,19,20,20,21,21,22,22,23,23,24,24,25,25,26,26,27,27,28,28,29,29,30,30,31,31,32,32,33,33,34,34,35,35,36,36,37,37,38,38,39,39,40,40,41,41,42,42,43,43,44,44,45,45,46,46,47,47,48,48,49,49,50,50,51,51,52,52,53,53,54,54,55,55,56,56,57,57,58,58,59,59,60,60],"right_children":[2,4,6,8,10,12,14,16,18,20,22,24,26,28,30,-1,32,34,36,38,40,42,44,46,48,50,52,54,56,58,60,62,64,66,68,70,72,74,76,78,80,82,84,86,88,90,92,94,96,98,100,102,104,106,108,110,112,114,116,118,120,-1,-1,-1,-1,-1,-1,-1,-1,-1,-1,-1,-1,-1,-1,-1,-1,-1,-1,-1,-1,-1,-1,-1,-1,-1,-1,-1,-1,-1,-1,-1,-1,-1,-1,-1,-1,-1,-1,-1,-1,-1,-1,-1,-1,-1,-1,-1,-1,-1,-1,-1,-1,-1,-1,-1,-1,-1,-1,-1,-1],"split_conditions":[1E0,1.6333508E1,1.4194834E1,1.1766666E1,1.5580574E-2,1.4516666E1,1E0,1.0592922E1,1.4718696E1,1E0,8.764132E0,6.737947E-3,2E0,1.2159359E1,5.304226E1,2.0205535E-2,4.0970356E1,1.5766666E1,7.8491287E0,2.045E1,1.0846659E1,1.1800424E1,1E0,1.25E0,2.8145515E1,3.3933334E1,7.259501E-3,2E0,2.7784887E1,2.0970574E-1,6.576473E0,1.6260658E1,7.0333333E0,1.8027756E1,1.41325E1,-1E0,1.333442E-2,2.5777502E1,4E0,1.3505924E1,2.4060133E1,1.4956862E-1,1.3266666E1,1.369708E1,9.687621E0,1.603122E1,1.0997096E1,1.2590754E1,2E0,3.2016666E1,3.7433334E1,3.765634E0,7.173694E0,3.7633335E1,2.8837374E1,2E0,1.4496971E1,3E0,8.109871E0,4.382921E0,6.9115844E0,-2.452187E-1,-7.45557E-3,-1.722405E-1,1.2471777E-1,4.0486217E-1,-1.5235205E-1,-1.9689973E-1,-5.4966573E-2,-2.4409422E-1,3.2974437E-2,-1.7291093E-1,-2.4341577E-1,-1.331257E-1,2.8467987E-2,9.891619E-2,-1.4484523E-1,-3.906195E-2,1.00143105E-1,-1.1052313E-1,8.801744E-2,-0E0,-1.22045726E-1,-1.9093096E-1,4.020114E-1,1.782358E-1,-9.652303E-2,1.5978311E-1,-1.8574569E-1,3.648323E-2,-2.490277E-1,1.3797595E-1,1.1838286E-2,-2.6797312E-1,-4.1666918E-2,1.8193719E-1,-1.8981409E-1,-1.11317605E-1,2.0031404E-1,-2.593925E-1,-1.02405556E-1,-2.052087E-1,1.5803581E-2,1.1120195E-1,-1.4168012E-1,1.2953599E-1,-6.2430322E-2,3.937833E-1,1.6143025E-1,6.1466787E-2,-5.0427873E-2,1.0960285E-1,3.889067E-1,-6.0840924E-3,4.644235E-2,-9.682068E-3,-1.4465058E-1,9.493002E-2,1.1339592E-2,2.8965145E-1,-1.12126544E-1],"split_indices":[0,5,5,3,6,3,8,4,9,2,9,6,0,4,5,0,4,3,5,3,9,4,2,3,9,3,6,0,9,6,9,5,3,4,5,0,6,5,8,4,9,6,3,4,4,9,5,5,8,3,3,9,5,3,5,2,5,0,9,9,4,0,0,0,0,0,0,0,0,0,0,0,0,0,0,0,0,0,0,0,0,0,0,0,0,0,0,0,0,0,0,0,0,0,0,0,0,0,0,0,0,0,0,0,0,0,0,0,0,0,0,0,0,0,0,0,0,0,0,0,0],"split_type":[0,0,0,0,0,0,0,0,0,0,0,0,0,0,0,0,0,0,0,0,0,0,0,0,0,0,0,0,0,0,0,0,0,0,0,0,0,0,0,0,0,0,0,0,0,0,0,0,0,0,0,0,0,0,0,0,0,0,0,0,0,0,0,0,0,0,0,0,0,0,0,0,0,0,0,0,0,0,0,0,0,0,0,0,0,0,0,0,0,0,0,0,0,0,0,0,0,0,0,0,0,0,0,0,0,0,0,0,0,0,0,0,0,0,0,0,0,0,0,0,0],"sum_hessian":[5.3856455E3,1.9884199E3,3.3972256E3,5.0346133E2,1.4849586E3,4.283101E2,2.9689155E3,1.2061199E2,3.8284937E2,1.1372974E3,3.4766125E2,1.14903755E2,3.134063E2,3.6616055E2,2.602755E3,1.6416143E0,1.1897038E2,6.205322E1,3.2079614E2,2.3775154E2,8.995458E2,1.3461732E2,2.1304393E2,9.369032E1,2.1213438E1,1.7367133E2,1.3973499E2,1.4428558E2,2.2187497E2,2.2946282E3,3.0812686E2,1.1643815E2,2.5322337E0,6.389755E0,5.5663467E1,1.622159E1,3.0457455E2,1.0525873E2,1.3249283E2,6.3531915E2,2.6422665E2,1.2590311E2,8.714216E0,4.113251E1,1.7191142E2,4.305036E0,8.9385284E1,1.7005116E1,4.208323E0,1.0715964E2,6.651169E1,1.1267396E2,2.7061037E1,8.058388E1,6.3701702E1,2.177541E2,4.120876E0,2.1643394E3,1.302887E2,2.8994617E2,1.818069E1,1.1531739E2,1.1207558E0,1.5008032E0,1.0314305E0,5.248301E0,1.1414536E0,2.6020847E1,2.9642618E1,2.6000464E0,1.3621543E1,2.2465532E2,7.991923E1,2.8962994E1,7.629573E1,1.2497266E2,7.520168E0,5.6426404E2,7.105514E1,2.3983708E2,2.438957E1,5.6218464E1,6.968464E1,1.8098251E0,6.9043913E0,6.8506355E0,3.4281876E1,1.9275646E0,1.6998386E2,1.3355162E0,2.9695196E0,3.0466145E1,5.891914E1,9.491036E0,7.5140786E0,2.5500965E0,1.6582264E0,9.790484E1,9.254804E0,1.7019585E1,4.9492104E1,7.2684293E0,1.05405525E2,2.2129261E0,2.484811E1,6.469299E1,1.5890883E1,1.0130115E1,5.3571587E1,1.7162784E2,4.6126263E1,1.6276429E0,2.493233E0,1.7700012E3,3.9433826E2,5.7990402E1,7.22983E1,1.752691E2,1.14677055E2,1.6000898E1,2.1797931E0],"tree_param":{"num_deleted":"0","num_feature":"10","num_nodes":"121","size_leaf_vector":"1"}},{"base_weights":[-6.310964E-2,-2.135104E-1,1.9311378E-2,-5.3225327E-1,-1.17870055E-1,1.8046388E-1,-4.143555E-3,-7.212328E-1,-4.7442043E-1,-1.7431359E-1,8.268515E-2,1.6055779E-1,9.305027E-1,-6.1796095E-2,6.791305E-2,-4.7283813E-2,-7.420549E-1,-2.0608787E-1,-5.3116417E-1,-1.375744E-1,-5.0510526E-1,3.4788144E-1,2.4468184E-3,2.3469713E-1,4.5848694E-3,2.96601E-1,4.8865456E-2,2.851571E-2,-1.2662943E-1,-2.542915E-1,8.249098E-2,1.8019687E-1,-1.896493E-1,-5.285046E-1,-8.048434E-1,5.6280845E-1,-3.3165932E-1,-6.4075984E-2,-5.601226E-1,-1.0877068E-1,-4.5373946E-1,-7.524251E-1,-3.7353212E-1,6.4997596E-1,2.3997167E-1,1.9988647E-1,-7.425973E-2,-1.0374035E-1,2.7687645E-1,-3.886464E-2,3.328601E-1,-2.4063753E-1,1.093472E-1,-1.5517226E-1,1.2173061E-1,3.7484908E-1,-3.2938936E-1,2.0393509E-1,2.3011548E-2,-1.8491083E-1,7.88382E-2,-3.4196563E-2,-2.4795966E-1,2.617841E-1,-1.6839916E-1,-1.7746344E-1,-3.356222E-2,-2.1361083E-1,2.6964193E-2,-1.4771135E-1,-2.2549844E-1,-9.989662E-2,-1.6983785E-2,-1.6609292E-1,1.113883E-2,1.0755157E-1,-2.3953755E-1,-1.4355777E-1,1.4566631E-2,1.1618219E-1,3.2889032E-1,-2.1286562E-1,8.407956E-2,-1.6534743E-1,8.473E-2,-9.194733E-2,5.665127E-3,3.5893932E-2,-2.9721236E-1,8.9770645E-2,-1.2830459E-1,-3.9095014E-2,9.074858E-2,4.5137443E-2,-8.742334E-2,-1.07160896E-1,4.1339934E-2,-5.0166603E-2,1.4396404E-1,8.538896E-2,-1.1239186E-1,-2.9230101E-2,3.406667E-1,-1.5894675E-1,-1.4765373E-2,5.307517E-2,2.5405094E-1,2.1609824E-2,-3.7812036E-2],"categories":[],"categories_nodes":[],"categories_segments":[],"categories_sizes":[],"default_left":[0,0,0,0,0,0,0,0,0,0,0,0,0,0,0,0,0,0,0,0,0,0,0,0,0,0,0,0,0,0,0,0,0,0,0,0,0,0,0,0,0,0,0,0,0,0,0,0,0,0,0,0,0,0,0,0,0,0,0,0,0,0,0,0,0,0,0,0,0,0,0,0,0,0,0,0,0,0,0,0,0,0,0,0,0,0,0,0,0,0,0,0,0,0,0,0,0,0,0,0,0,0,0,0,0,0,0,0,0],"id":9,"left_children":[1,3,5,7,9,11,13,15,17,19,21,23,25,27,29,31,33,35,37,39,41,43,45,47,49,-1,-1,51,53,55,57,-1,-1,59,61,63,65,67,69,71,73,75,77,79,81,83,85,87,89,91,-1,93,95,97,99,101,103,105,107,-1,-1,-1,-1,-1,-1,-1,-1,-1,-1,-1,-1,-1,-1,-1,-1,-1,-1,-1,-1,-1,-1,-1,-1,-1,-1,-1,-1,-1,-1,-1,-1,-1,-1,-1,-1,-1,-1,-1,-1,-1,-1,-1,-1,-1,-1,-1,-1,-1,-1],"loss_changes":[6.466497E1,5.6163315E1,1.2752924E1,4.190384E0,1.6119299E1,6.1408873E0,1.2223176E1,1.252964E0,4.829956E0,1.3359833E1,6.6152687E0,4.818739E0,2.0348263E-1,9.588768E0,6.143424E0,1.9485347E0,7.0547104E-1,5.8999634E0,3.5650177E0,9.009922E0,3.1969624E0,2.112194E0,3.6813025E0,4.092495E0,6.699185E0,0E0,0E0,1.4884897E1,6.7764397E0,2.7896981E0,9.013373E0,0E0,0E0,1.9144197E0,8.6935425E-1,3.5159552E0,2.8230014E0,1.8362178E0,2.8106308E0,1.0689616E1,4.141123E0,2.2258701E0,3.3578463E0,1.5612278E0,2.2642827E0,4.3532996E0,3.8009334E0,6.5217743E0,4.0941715E0,4.146998E0,0E0,3.1934404E0,7.018524E0,6.5944977E0,8.055012E0,2.4971292E0,2.789732E0,6.8830795E0,6.1544757E0,0E0,0E0,0E0,0E0,0E0,0E0,0E0,0E0,0E0,0E0,0E0,0E0,0E0,0E0,0E0,0E0,0E0,0E0,0E0,0E0,0E0,0E0,0E0,0E0,0E0,0E0,0E0,0E0,0E0,0E0,0E0,0E0,0E0,0E0,0E0,0E0,0E0,0E0,0E0,0E0,0E0,0E0,0E0,0E0,0E0,0E0,0E0,0E0,0E0,0E0],"parents":[2147483647,0,0,1,1,2,2,3,3,4,4,5,5,6,6,7,7,8,8,9,9,10,10,11,11,12,12,13,13,14,14,15,15,16,16,17,17,18,18,19,19,20,20,21,21,22,22,23,23,24,24,27,27,28,28,29,29,30,30,33,33,34,34,35,35,36,36,37,37,38,38,39,39,40,40,41,41,42,42,43,43,44,44,45,45,46,46,47,47,48,48,49,49,51,51,52,52,53,53,54,54,55,55,56,56,57,57,58,58],"right_children":[2,4,6,8,10,12,14,16,18,20,22,24,26,28,30,32,34,36,38,40,42,44,46,48,50,-1,-1,52,54,56,58,-1,-1,60,62,64,66,68,70,72,74,76,78,80,82,84,86,88,90,92,-1,94,96,98,100,102,104,106,108,-1,-1,-1,-1,-1,-1,-1,-1,-1,-1,-1,-1,-1,-1,-1,-1,-1,-1,-1,-1,-1,-1,-1,-1,-1,-1,-1,-1,-1,-1,-1,-1,-1,-1,-1,-1,-1,-1,-1,-1,-1,-1,-1,-1,-1,-1,-1,-1,-1,-1],"split_conditions":[1E0,1.6333508E1,7.5833335E0,1.1766666E1,4.7561287E1,7.3891396E1,2E0,6.2169123E0,1.4718696E1,1.3533528E-1,2E0,2E0,9.6856624E-2,1E0,1.0333333E1,1E0,1E0,1.5216666E1,7.8491287E0,4E0,1.8566668E1,1E0,5.001E0,1.3155161E1,3.6210632E1,2.96601E-1,4.8865456E-2,1.6742409E1,5.304226E1,6.9115844E0,2.5933332E1,1.8019687E-1,-1.896493E-1,3.4790802E1,7.6666665E-1,6.770587E-2,1.41325E1,1.915E1,1.333442E-2,9.433333E0,4.39765E-2,7.156815E0,3.7782005E1,6.606815E0,-2E0,1.3416408E0,1.6866667E1,1.2590754E1,5E0,6.4666667E0,3.328601E-1,9.013878E0,2.6683328E0,5E1,4E0,6.440497E0,1.1985408E1,2.5416666E1,1.5297058E1,-1.8491083E-1,7.88382E-2,-3.4196563E-2,-2.4795966E-1,2.617841E-1,-1.6839916E-1,-1.7746344E-1,-3.356222E-2,-2.1361083E-1,2.6964193E-2,-1.4771135E-1,-2.2549844E-1,-9.989662E-2,-1.6983785E-2,-1.6609292E-1,1.113883E-2,1.0755157E-1,-2.3953755E-1,-1.4355777E-1,1.4566631E-2,1.1618219E-1,3.2889032E-1,-2.1286562E-1,8.407956E-2,-1.6534743E-1,8.473E-2,-9.194733E-2,5.665127E-3,3.5893932E-2,-2.9721236E-1,8.9770645E-2,-1.2830459E-1,-3.9095014E-2,9.074858E-2,4.5137443E-2,-8.742334E-2,-1.07160896E-1,4.1339934E-2,-5.0166603E-2,1.4396404E-1,8.538896E-2,-1.1239186E-1,-2.9230101E-2,3.406667E-1,-1.5894675E-1,-1.4765373E-2,5.307517E-2,2.5405094E-1,2.1609824E-2,-3.7812036E-2],"split_indices":[0,5,3,3,5,5,0,9,9,6,8,0,6,1,3,1,2,3,5,8,3,2,4,5,9,0,0,5,5,4,3,0,0,4,3,6,5,3,6,3,6,4,5,4,0,9,3,5,8,3,0,9,9,9,8,4,9,3,9,0,0,0,0,0,0,0,0,0,0,0,0,0,0,0,0,0,0,0,0,0,0,0,0,0,0,0,0,0,0,0,0,0,0,0,0,0,0,0,0,0,0,0,0,0,0,0,0,0,0],"split_type":[0,0,0,0,0,0,0,0,0,0,0,0,0,0,0,0,0,0,0,0,0,0,0,0,0,0,0,0,0,0,0,0,0,0,0,0,0,0,0,0,0,0,0,0,0,0,0,0,0,0,0,0,0,0,0,0,0,0,0,0,0,0,0,0,0,0,0,0,0,0,0,0,0,0,0,0,0,0,0,0,0,0,0,0,0,0,0,0,0,0,0,0,0,0,0,0,0,0,0,0,0,0,0,0,0,0,0,0,0],"sum_hessian":[5.213623E3,1.8455361E3,3.368087E3,4.246579E2,1.4208783E3,4.276168E2,2.94047E3,9.6412384E1,3.282455E2,1.1093081E3,3.115702E2,4.1787378E2,9.743008E0,1.6343531E3,1.3061168E3,3.1314118E0,9.3280975E1,5.8413074E1,2.6983246E2,9.999657E2,1.09342384E2,7.130794E1,2.4026225E2,2.8246332E2,1.3541048E2,8.667938E0,1.075069E0,6.825665E2,9.517866E2,5.552774E1,1.2505891E3,1.3917078E0,1.7397041E0,2.3696533E1,6.958444E1,7.5998015E0,5.081327E1,1.6141565E1,2.5369089E2,9.179936E2,8.197208E1,3.6067364E1,7.3275024E1,1.7201668E1,5.4106266E1,6.714121E1,1.7312105E2,3.0877638E1,2.5158566E2,1.3112848E2,4.281994E0,1.5690132E2,5.256652E2,8.543752E2,9.74114E1,5.3536744E0,5.017407E1,4.097857E2,8.408034E2,2.1640985E1,2.055548E0,2.448796E0,6.713564E1,6.203002E0,1.3967997E0,2.2299149E1,2.8514124E1,2.5277207E0,1.3613846E1,1.9042581E2,6.326508E1,1.7186705E2,7.461266E2,6.817306E1,1.3799015E1,1.0785398E0,3.4988823E1,5.87614E1,1.4513624E1,1.2145002E1,5.056666E0,1.42539E0,5.2680878E1,5.9665728E0,6.117464E1,4.9210163E1,1.2391088E2,2.5266514E1,5.6111236E0,2.4454239E2,7.0432844E0,1.0414003E2,2.698846E1,1.757706E1,1.3932426E2,2.9348871E1,4.9631635E2,8.393433E2,1.5031898E1,7.381482E1,2.359658E1,3.7598448E0,1.5938298E0,2.8521763E1,2.1652304E1,3.9463205E2,1.515364E1,6.336061E2,2.0719734E2],"tree_param":{"num_deleted":"0","num_feature":"10","num_nodes":"109","size_leaf_vector":"1"}},{"base_weights":[-4.7563415E-2,-1.6461675E-1,1.3430605E-2,-7.803547E-2,-4.271078E-1,1.323214E-1,-1.901181E-2,1.7128881E-2,-1.7024939E-1,-5.4145896E-1,-1.9193897E-1,3.2374993E-2,2.34839E-1,-2.2766308E-3,-2.4313502E-1,1.6567142E-1,-8.7330654E-2,-3.716013E-1,-7.088108E-2,-4.505733E-1,-7.3744315E-1,-6.159076E-2,-8.139787E-1,7.043321E-2,-4.77967E-1,2.1822914E-1,4.6410882E-1,-8.1936745E-3,7.177303E-1,-1.1897214E-1,-4.6289822E-1,1.9033508E-2,2.9227215E-1,2.3821393E-2,-2.7407247E-1,-2.7350762E-1,-3.4423044E-1,2.065995E-1,-1.4380154E-1,-4.6171466E-1,1.9084533E-1,-3.3803505E-1,-7.774669E-1,1.0129074E0,-1.444876E-1,-8.471797E-1,-0E0,1.0981855E-1,-4.8827705E-1,-8.32929E-1,-9.875785E-2,2.4086818E-1,-3.4861836E-1,6.036823E-2,-5.245979E-2,1.0623555E0,3.4736213E-1,2.4708726E-1,-2.7922773E-1,-5.0253433E-1,3.685052E-1,-1.5642875E-1,2.209391E-2,1.5210715E-1,1.6691763E-2,-1.4062172E-2,1.6385132E-1,-2.373269E-2,-1.487928E-1,2.4871886E-1,-1.0738714E-1,-1.5250511E-1,8.200065E-2,-4.6892837E-3,-1.0692956E-1,-1.6677219E-1,-9.54972E-2,3.898295E-2,-2.4672084E-1,-2.6265505E-1,-1.7508338E-1,-7.5656645E-2,4.9694604E-1,-1.54558E-1,-1.3605123E-2,-1.2064497E-3,-2.6436073E-1,-1.984805E-2,5.2767552E-2,-2.3122674E-1,-2.5789805E-2,-2.645012E-1,-2.603463E-2,1.4618452E-1,-1.3553457E-1,4.5602866E-2,1.07164614E-1,-1.8648E-1,1.865926E-1,1.1771499E-1,1.0861527E-2,3.930357E-3,-3.8013846E-2,1.6930862E-1,4.0811482E-1,2.3390321E-2,3.4476858E-1,4.204076E-1,-3.7657276E-2,1.4977454E-1,-1.011103E-1,-1.2586136E-1,-2.5534147E-1,4.0142485E-1,-1.7380628E-1],"categories":[],"categories_nodes":[],"categories_segments":[],"categories_sizes":[],"default_left":[0,0,0,0,0,0,0,0,0,0,0,0,0,0,0,0,0,0,0,0,0,0,0,0,0,0,0,0,0,0,0,0,0,0,0,0,0,0,0,0,0,0,0,0,0,0,0,0,0,0,0,0,0,0,0,0,0,0,0,0,0,0,0,0,0,0,0,0,0,0,0,0,0,0,0,0,0,0,0,0,0,0,0,0,0,0,0,0,0,0,0,0,0,0,0,0,0,0,0,0,0,0,0,0,0,0,0,0,0,0,0,0,0,0,0],"id":10,"left_children":[1,3,5,7,9,11,13,15,17,19,21,23,25,27,29,31,33,35,37,39,41,43,45,47,49,51,-1,53,55,57,59,61,63,65,67,-1,69,71,73,75,-1,77,79,81,83,85,-1,87,89,91,93,95,97,99,101,103,105,107,109,111,113,-1,-1,-1,-1,-1,-1,-1,-1,-1,-1,-1,-1,-1,-1,-1,-1,-1,-1,-1,-1,-1,-1,-1,-1,-1,-1,-1,-1,-1,-1,-1,-1,-1,-1,-1,-1,-1,-1,-1,-1,-1,-1,-1,-1,-1,-1,-1,-1,-1,-1,-1,-1,-1,-1],"loss_changes":[3.636609E1,3.9568363E1,1.2925304E1,1.1544751E1,1.1446472E1,7.3266325E0,9.839524E0,1.0058186E1,1.3289E1,4.7142944E0,1.1477249E1,7.0903044E0,7.201105E0,1.0367283E1,4.861455E0,4.934555E0,7.91905E0,2.8137684E0,9.101325E0,2.710331E0,1.0636406E0,1.0716773E1,6.042099E-1,7.521938E0,3.2308216E0,4.5749836E0,0E0,7.3770394E0,2.0214891E0,7.0022364E0,2.3465662E0,3.6981618E0,7.196349E0,8.893651E0,6.055378E0,0E0,3.6516876E0,4.576158E0,9.663492E0,2.4323692E0,0E0,2.4859161E0,8.78273E-1,7.56672E0,4.0380983E0,5.8361244E-1,0E0,3.7391376E0,2.4026852E0,2.9215622E-1,3.010719E0,3.3901005E0,4.0194654E0,7.5876536E0,7.2080274E0,4.7168636E-1,2.2039015E0,1.5920363E1,3.8791404E0,1.3314915E0,4.0016837E0,0E0,0E0,0E0,0E0,0E0,0E0,0E0,0E0,0E0,0E0,0E0,0E0,0E0,0E0,0E0,0E0,0E0,0E0,0E0,0E0,0E0,0E0,0E0,0E0,0E0,0E0,0E0,0E0,0E0,0E0,0E0,0E0,0E0,0E0,0E0,0E0,0E0,0E0,0E0,0E0,0E0,0E0,0E0,0E0,0E0,0E0,0E0,0E0,0E0,0E0,0E0,0E0,0E0,0E0],"parents":[2147483647,0,0,1,1,2,2,3,3,4,4,5,5,6,6,7,7,8,8,9,9,10,10,11,11,12,12,13,13,14,14,15,15,16,16,17,17,18,18,19,19,20,20,21,21,22,22,23,23,24,24,25,25,27,27,28,28,29,29,30,30,31,31,32,32,33,33,34,34,36,36,37,37,38,38,39,39,41,41,42,42,43,43,44,44,45,45,47,47,48,48,49,49,50,50,51,51,52,52,53,53,54,54,55,55,56,56,57,57,58,58,59,59,60,60],"right_children":[2,4,6,8,10,12,14,16,18,20,22,24,26,28,30,32,34,36,38,40,42,44,46,48,50,52,-1,54,56,58,60,62,64,66,68,-1,70,72,74,76,-1,78,80,82,84,86,-1,88,90,92,94,96,98,100,102,104,106,108,110,112,114,-1,-1,-1,-1,-1,-1,-1,-1,-1,-1,-1,-1,-1,-1,-1,-1,-1,-1,-1,-1,-1,-1,-1,-1,-1,-1,-1,-1,-1,-1,-1,-1,-1,-1,-1,-1,-1,-1,-1,-1,-1,-1,-1,-1,-1,-1,-1,-1,-1,-1,-1,-1,-1,-1],"split_conditions":[1E0,1.962371E1,1E0,1E0,3.4866665E1,2.2139862E1,2.6517353E1,2E0,2.675317E1,2.8199646E1,3.0545048E-2,7.427358E-2,1.8027756E1,2.523351E1,1.3384775E1,2.335E1,8.854942E0,1.1793193E1,1E0,2.7115494E1,8.793308E0,1.627882E1,4E0,4.5283333E1,2.5066668E1,1.6984993E1,4.6410882E-1,1E0,2.765E1,2.6793468E1,8.460027E-2,3.0805843E0,3.6533333E1,1.1229425E1,2.6018019E1,-2.7350762E-1,1.2416831E1,-1E0,3E0,2.1266666E1,1.9084533E-1,3.7619278E1,1.2650157E1,1.2903488E1,-1E0,9.355149E0,-0E0,1.3500474E1,4.7266666E1,2.1806843E1,3.2983334E1,2E0,3E0,6.074537E0,2.7283333E1,1.7416666E1,4.4566666E1,1E0,6.3187075E0,3E0,1.7033333E1,-1.5642875E-1,2.209391E-2,1.5210715E-1,1.6691763E-2,-1.4062172E-2,1.6385132E-1,-2.373269E-2,-1.487928E-1,2.4871886E-1,-1.0738714E-1,-1.5250511E-1,8.200065E-2,-4.6892837E-3,-1.0692956E-1,-1.6677219E-1,-9.54972E-2,3.898295E-2,-2.4672084E-1,-2.6265505E-1,-1.7508338E-1,-7.5656645E-2,4.9694604E-1,-1.54558E-1,-1.3605123E-2,-1.2064497E-3,-2.6436073E-1,-1.984805E-2,5.2767552E-2,-2.3122674E-1,-2.5789805E-2,-2.645012E-1,-2.603463E-2,1.4618452E-1,-1.3553457E-1,4.5602866E-2,1.07164614E-1,-1.8648E-1,1.865926E-1,1.1771499E-1,1.0861527E-2,3.930357E-3,-3.8013846E-2,1.6930862E-1,4.0811482E-1,2.3390321E-2,3.4476858E-1,4.204076E-1,-3.7657276E-2,1.4977454E-1,-1.011103E-1,-1.2586136E-1,-2.5534147E-1,4.0142485E-1,-1.7380628E-1],"split_indices":[0,4,2,1,3,5,4,8,5,4,6,6,4,9,5,3,9,5,2,9,5,9,8,3,3,4,0,1,3,9,6,9,3,4,5,0,5,0,8,3,0,9,5,9,0,5,0,5,3,5,3,0,0,4,3,3,3,8,5,0,3,0,0,0,0,0,0,0,0,0,0,0,0,0,0,0,0,0,0,0,0,0,0,0,0,0,0,0,0,0,0,0,0,0,0,0,0,0,0,0,0,0,0,0,0,0,0,0,0,0,0,0,0,0,0],"split_type":[0,0,0,0,0,0,0,0,0,0,0,0,0,0,0,0,0,0,0,0,0,0,0,0,0,0,0,0,0,0,0,0,0,0,0,0,0,0,0,0,0,0,0,0,0,0,0,0,0,0,0,0,0,0,0,0,0,0,0,0,0,0,0,0,0,0,0,0,0,0,0,0,0,0,0,0,0,0,0,0,0,0,0,0,0,0,0,0,0,0,0,0,0,0,0,0,0,0,0,0,0,0,0,0,0,0,0,0,0,0,0,0,0,0,0],"sum_hessian":[5.090181E3,1.7437327E3,3.3464485E3,1.3124923E3,4.3124036E2,7.174036E2,2.629045E3,6.4578E2,6.667123E2,2.8899063E2,1.4224973E2,3.6441733E2,3.5298627E2,2.4477302E3,1.8131458E2,2.6678308E2,3.7899698E2,2.1906685E2,4.4764542E2,2.0003545E2,8.895516E1,1.1864706E2,2.3602674E1,3.401118E2,2.4305544E1,3.4980096E2,3.185306E0,2.428897E3,1.8833258E1,1.17132744E2,6.418183E1,1.24508606E2,1.4227448E2,2.3779443E2,1.4120255E2,8.831838E0,2.1023502E2,9.249066E1,3.5515475E2,1.9866583E2,1.3696195E0,9.190004E0,7.976516E1,7.6079955E0,1.1103906E2,2.2553947E1,1.0487252E0,3.1863275E2,2.1479052E1,1.1799925E1,1.2505618E1,3.370896E2,1.2711362E1,9.519066E2,1.4769904E3,8.6479845E0,1.0185272E1,3.5310307E1,8.182243E1,6.175364E1,2.42819E0,1.0474223E1,1.1403438E2,7.376511E1,6.850936E1,2.1008073E2,2.7713705E1,7.612585E1,6.50767E1,1.6600335E0,2.0857498E2,7.203458E0,8.52872E1,2.2254909E2,1.3260567E2,1.1774531E2,8.0920525E1,4.941236E0,4.2487683E0,5.0294575E1,2.9470585E1,2.7179787E0,4.8900166E0,2.2330963E1,8.87081E1,1.0321586E0,2.152179E1,8.656415E1,2.320686E2,1.193478E1,9.544272E0,1.0780067E1,1.0198569E0,4.451803E0,8.053815E0,1.9291745E2,1.4417215E2,1.0282097E1,2.429265E0,6.32628E1,8.886438E2,7.8412854E2,6.928619E2,4.446773E0,4.2012115E0,8.538595E0,1.6466775E0,8.0086565E0,2.7301651E1,5.0083957E0,7.681404E1,5.1889896E1,9.863744E0,1.0489833E0,1.3792068E0],"tree_param":{"num_deleted":"0","num_feature":"10","num_nodes":"115","size_leaf_vector":"1"}},{"base_weights":[-3.625E-2,-1.2693073E-1,9.19818E-3,-3.8574612E-1,-6.3078396E-2,1.3405347E-1,-1.2784887E-2,-3.0059335E-1,-5.7116026E-1,-2.7159777E-2,-2.6219317E-1,3.8633338E-1,7.910808E-2,6.8854485E-3,-1.4554736E-1,-4.852443E-1,-8.805826E-2,-4.5951867E-1,-8.6155397E-1,-4.6014246E-2,2.8265607E-1,-3.1844446E-1,9.8620355E-2,4.3955278E-1,-6.376953E-1,3.6513086E-2,3.963112E-1,-1.213898E-4,7.4463636E-1,-2.1248591E-1,2.1383993E-1,-5.4816395E-1,4.0553447E-2,3.9120045E-1,-1.9955154E-1,-8.559492E-2,-5.9291464E-1,-2.7761605E-1,-2.3089987E-1,-1.1266449E-1,4.6175476E-2,4.1216243E-2,5.2504426E-1,4.8715208E-4,-3.6185667E-1,4.103299E-1,-5.8273953E-1,7.540527E-2,5.353721E-1,-2.4990942E-1,-0E0,6.091548E-2,-9.6813494E-1,5.053683E-1,-6.860681E-1,-4.76417E-1,5.250872E-3,1.3981919E0,-4.576862E-2,-1.8156421E-1,-5.690716E-1,4.32436E-1,-1.9358948E-1,-6.91011E-2,-1.9443218E-1,-7.613564E-2,3.4821695E-1,2.5447887E-1,-1.5412186E-1,2.8024176E-1,-7.791646E-2,-6.1396085E-2,2.2370474E-1,-2.1931045E-1,-5.1048156E-2,1.2673342E-1,-1.9124657E-1,-8.6248346E-2,-1.7895758E-2,-4.795596E-2,5.7362292E-2,4.8564937E-2,-2.441275E-1,2.3577088E-1,8.862521E-3,1.5275721E-1,-1.9719751E-1,-1.7510882E-1,-7.8300446E-2,6.343315E-2,5.0283587E-1,1.2142316E-1,-2.3200051E-1,2.5185713E-1,-1.2597437E-1,2.4380848E-1,9.803536E-2,-2.2575381E-1,2.4133475E-2,-3.8245285E-1,-1.171524E-1,4.5360938E-1,1.10259324E-1,-4.1853376E-2,-2.3986544E-1,-4.923879E-2,-2.0185404E-1,4.739974E-3,-6.1579954E-2,-2.0149086E-2,5.556224E-1,1.0584253E-1,-1.8589243E-1,-4.7481477E-2,-1.9016E-1,-2.092649E-1,1.2626727E-1,-1.875492E-1,1.8325186E-1,3.343461E-1,-1.2118556E-1],"categories":[],"categories_nodes":[],"categories_segments":[],"categories_sizes":[],"default_left":[0,0,0,0,0,0,0,0,0,0,0,0,0,0,0,0,0,0,0,0,0,0,0,0,0,0,0,0,0,0,0,0,0,0,0,0,0,0,0,0,0,0,0,0,0,0,0,0,0,0,0,0,0,0,0,0,0,0,0,0,0,0,0,0,0,0,0,0,0,0,0,0,0,0,0,0,0,0,0,0,0,0,0,0,0,0,0,0,0,0,0,0,0,0,0,0,0,0,0,0,0,0,0,0,0,0,0,0,0,0,0,0,0,0,0,0,0,0,0,0,0],"id":11,"left_children":[1,3,5,7,9,11,13,15,17,19,21,23,25,27,29,31,33,35,37,39,41,43,45,47,49,51,53,55,57,59,61,63,65,67,69,71,73,-1,75,77,79,81,83,85,87,89,91,93,95,-1,-1,97,99,101,103,105,107,109,111,113,115,117,119,-1,-1,-1,-1,-1,-1,-1,-1,-1,-1,-1,-1,-1,-1,-1,-1,-1,-1,-1,-1,-1,-1,-1,-1,-1,-1,-1,-1,-1,-1,-1,-1,-1,-1,-1,-1,-1,-1,-1,-1,-1,-1,-1,-1,-1,-1,-1,-1,-1,-1,-1,-1,-1,-1,-1,-1,-1,-1],"loss_changes":[2.0584957E1,2.7484955E1,9.1409025E0,4.942505E0,9.5395565E0,6.834326E0,7.3994503E0,8.857138E0,2.7853355E0,6.6240997E0,4.195283E0,5.0884237E0,5.4955544E0,1.2807235E1,8.840487E0,4.0977993E0,5.8074145E0,3.6828556E0,7.571602E-1,6.5976205E0,3.7252474E0,2.4873104E0,6.178855E0,2.860815E0,6.04218E-1,8.885498E0,6.027522E0,6.2951717E0,1.2239604E1,3.2279692E0,5.24362E0,3.221859E0,4.9232335E0,8.936935E0,6.1854467E0,2.2169988E0,3.0440998E0,0E0,1.3419757E0,5.7221365E0,1.34747505E1,3.5589514E0,4.049632E0,7.6589775E0,3.2555428E0,4.4745655E0,2.0656376E0,7.611004E0,3.4863472E0,0E0,0E0,5.6510067E0,8.570013E-1,5.433632E0,8.974886E-2,1.4892435E0,5.3460584E0,8.855747E0,2.86397E0,2.8336372E0,3.3642502E0,7.5502954E0,6.06621E0,0E0,0E0,0E0,0E0,0E0,0E0,0E0,0E0,0E0,0E0,0E0,0E0,0E0,0E0,0E0,0E0,0E0,0E0,0E0,0E0,0E0,0E0,0E0,0E0,0E0,0E0,0E0,0E0,0E0,0E0,0E0,0E0,0E0,0E0,0E0,0E0,0E0,0E0,0E0,0E0,0E0,0E0,0E0,0E0,0E0,0E0,0E0,0E0,0E0,0E0,0E0,0E0,0E0,0E0,0E0,0E0,0E0,0E0],"parents":[2147483647,0,0,1,1,2,2,3,3,4,4,5,5,6,6,7,7,8,8,9,9,10,10,11,11,12,12,13,13,14,14,15,15,16,16,17,17,18,18,19,19,20,20,21,21,22,22,23,23,24,24,25,25,26,26,27,27,28,28,29,29,30,30,31,31,32,32,33,33,34,34,35,35,36,36,38,38,39,39,40,40,41,41,42,42,43,43,44,44,45,45,46,46,47,47,48,48,51,51,52,52,53,53,54,54,55,55,56,56,57,57,58,58,59,59,60,60,61,61,62,62],"right_children":[2,4,6,8,10,12,14,16,18,20,22,24,26,28,30,32,34,36,38,40,42,44,46,48,50,52,54,56,58,60,62,64,66,68,70,72,74,-1,76,78,80,82,84,86,88,90,92,94,96,-1,-1,98,100,102,104,106,108,110,112,114,116,118,120,-1,-1,-1,-1,-1,-1,-1,-1,-1,-1,-1,-1,-1,-1,-1,-1,-1,-1,-1,-1,-1,-1,-1,-1,-1,-1,-1,-1,-1,-1,-1,-1,-1,-1,-1,-1,-1,-1,-1,-1,-1,-1,-1,-1,-1,-1,-1,-1,-1,-1,-1,-1,-1,-1,-1,-1,-1,-1],"split_conditions":[1E0,1.6333508E1,1E0,2E0,4.39765E-2,1.190042E1,1.8528357E1,1.3213474E1,2.4829418E1,7.3891396E1,4.3483334E1,4.7266666E1,3.7619278E1,2.2522211E1,3E0,2E0,1.1871394E1,1.2705485E1,4.44E1,2.9883333E1,2.9E0,4.5177426E0,1.1503912E1,3.231099E0,7.877182E0,3.3923412E1,4.7423622E1,1.0303826E1,2.71E1,4.4033333E1,2.3792856E1,9.572717E0,4.2033333E1,1.5536644E1,1.3323565E1,1.2475131E1,3.6883335E1,-2.7761605E-1,4.5666668E1,2.2139862E1,0E0,4.3683334E1,3E0,2.4883333E1,1.6116667E1,1.0480935E1,5.8277797E-2,1E0,6.0207973E0,-2.4990942E-1,-0E0,7.173694E0,1.1503912E1,8.793308E0,6.3187075E0,9.513149E0,2.604453E-1,1.5297058E1,2.3623928E1,1.3635604E-1,2E0,1.125E1,1.00568695E1,-6.91011E-2,-1.9443218E-1,-7.613564E-2,3.4821695E-1,2.5447887E-1,-1.5412186E-1,2.8024176E-1,-7.791646E-2,-6.1396085E-2,2.2370474E-1,-2.1931045E-1,-5.1048156E-2,1.2673342E-1,-1.9124657E-1,-8.6248346E-2,-1.7895758E-2,-4.795596E-2,5.7362292E-2,4.8564937E-2,-2.441275E-1,2.3577088E-1,8.862521E-3,1.5275721E-1,-1.9719751E-1,-1.7510882E-1,-7.8300446E-2,6.343315E-2,5.0283587E-1,1.2142316E-1,-2.3200051E-1,2.5185713E-1,-1.2597437E-1,2.4380848E-1,9.803536E-2,-2.2575381E-1,2.4133475E-2,-3.8245285E-1,-1.171524E-1,4.5360938E-1,1.10259324E-1,-4.1853376E-2,-2.3986544E-1,-4.923879E-2,-2.0185404E-1,4.739974E-3,-6.1579954E-2,-2.0149086E-2,5.556224E-1,1.0584253E-1,-1.8589243E-1,-4.7481477E-2,-1.9016E-1,-2.092649E-1,1.2626727E-1,-1.875492E-1,1.8325186E-1,3.343461E-1,-1.2118556E-1],"split_indices":[0,5,8,8,6,4,9,5,9,5,3,3,9,4,0,2,9,5,3,3,9,9,9,9,9,5,4,5,3,3,9,5,3,5,5,5,3,0,3,5,0,3,8,3,3,9,6,2,9,0,0,5,9,5,5,9,6,9,4,6,2,3,5,0,0,0,0,0,0,0,0,0,0,0,0,0,0,0,0,0,0,0,0,0,0,0,0,0,0,0,0,0,0,0,0,0,0,0,0,0,0,0,0,0,0,0,0,0,0,0,0,0,0,0,0,0,0,0,0,0,0],"split_type":[0,0,0,0,0,0,0,0,0,0,0,0,0,0,0,0,0,0,0,0,0,0,0,0,0,0,0,0,0,0,0,0,0,0,0,0,0,0,0,0,0,0,0,0,0,0,0,0,0,0,0,0,0,0,0,0,0,0,0,0,0,0,0,0,0,0,0,0,0,0,0,0,0,0,0,0,0,0,0,0,0,0,0,0,0,0,0,0,0,0,0,0,0,0,0,0,0,0,0,0,0,0,0,0,0,0,0,0,0,0,0,0,0,0,0,0,0,0,0,0,0],"sum_hessian":[4.9906636E3,1.6663256E3,3.324338E3,3.284397E2,1.3378859E3,4.9760208E2,2.8267358E3,2.2723907E2,1.0120064E2,1.1348137E3,2.0307214E2,8.7588974E1,4.1001312E2,2.462136E3,3.6459973E2,1.2065773E2,1.06581345E2,7.521215E1,2.5988485E1,1.070821E3,6.3992718E1,1.760243E2,2.7047844E1,8.38972E1,3.691775E0,3.627344E2,4.7278713E1,2.439828E3,2.230814E1,3.079321E2,5.666762E1,1.078942E2,1.2763525E1,1.9472462E1,8.710888E1,2.0405254E1,5.4806896E1,2.3031408E1,2.9570763E0,6.219985E2,4.4882254E2,3.2851925E1,3.114079E1,2.0931856E1,1.5509244E2,1.8931551E1,8.116292E0,1.8066944E1,6.583026E1,2.6201234E0,1.0716518E0,3.5514697E2,7.587436E0,4.3519325E1,3.7593846E0,2.6442183E1,2.4133857E3,1.1859519E1,1.044862E1,2.8500705E2,2.2925066E1,3.700017E1,1.9667452E1,2.6841501E1,8.1052704E1,1.0649422E1,2.114104E0,1.3052903E1,6.4195576E0,3.57443E0,8.3534454E1,1.8613468E1,1.7917863E0,4.0582283E1,1.4224612E1,1.0250245E0,1.9320517E0,1.4325229E2,4.7874615E2,1.8509294E2,2.637296E2,2.9601707E1,3.2502186E0,1.9884602E1,1.125619E1,1.2016856E1,8.915E0,4.6666534E1,1.0842591E2,1.7437714E1,1.4938383E0,1.0464327E0,7.069859E0,6.911583E0,1.1155361E1,2.6810017E1,3.902024E1,7.326709E0,3.4782025E2,4.054451E0,3.5329854E0,3.9531577E0,3.956617E1,1.1811734E0,2.578211E0,1.1115385E1,1.5326798E1,2.299555E3,1.1383089E2,2.9540625E0,8.905457E0,6.290549E0,4.158071E0,2.725427E2,1.246436E1,2.0642464E1,2.2826025E0,4.898205E0,3.2101967E1,2.0634136E0,1.7604038E1],"tree_param":{"num_deleted":"0","num_feature":"10","num_nodes":"121","size_leaf_vector":"1"}},{"base_weights":[-2.7821038E-2,-1.4591911E-2,-2.4938686E-1,1.1158877E-1,-3.3893548E-2,5.8005415E-2,-3.3542818E-1,9.048359E-2,1.0448606E0,-1.1102268E-2,-1.6015922E-1,3.6702108E-1,-3.3801705E-1,-5.3889704E-1,-2.1765256E-1,-3.2844344E-1,1.224397E-1,1.3629954E0,-1.87312E-1,-1.9506477E-2,4.5592952E-1,-3.458148E-1,-7.228059E-2,7.4722385E-1,-0E0,4.3614593E-1,-5.281778E-1,-5.704241E-1,2.3336487E-1,-1.1805355E-1,-5.728745E-1,2.6238698E-1,-3.9399177E-1,1.0643299E0,1.1007041E-1,1.535278E0,3.578718E-2,1.1867944E-1,-1.8367317E-1,-4.5138948E-2,8.4938034E-2,2.1423356E-1,8.2492524E-1,-8.0227345E-1,-2.9363433E-1,-1.2299963E-1,1.5542117E-1,7.441933E-2,1.1159678E0,4.6887526E-1,-2.2858983E-1,-1.2043604E-1,3.9969322E-1,-1.20818965E-1,-7.2719723E-1,-7.086812E-1,-3.7737525E-1,-2.849662E-1,1.2823665E-1,-9.1268086E-1,-3.1994465E-1,1.740455E-1,-1.4608882E-1,-1.5738653E-1,5.063073E-1,5.5349197E-2,-5.6437296E-3,5.604696E-2,5.1593727E-1,-1.1991719E-1,-8.928073E-3,4.1933533E-2,-2.505318E-2,-2.0299388E-2,1.7463912E-1,-7.261991E-2,3.5661614E-1,-4.2382535E-3,-2.5321034E-1,-6.044591E-2,-1.725968E-1,1.803554E-1,-4.2211253E-2,6.651234E-2,-1.1931276E-1,2.2509302E-1,-1.7714779E-1,4.0575266E-1,-1.506899E-1,4.1154298E-1,-1.8256104E-1,-0E0,-2.4171571E-1,-2.162353E-1,2.7098545E-1,-1.4404441E-1,1.0221208E-1,-2.4670693E-1,1.2882255E-2,-1.273902E-1,-2.3704574E-1,-1.9895048E-3,-1.7862059E-1,4.1079022E-2,-1.2623173E-1,4.3796223E-1,-6.5957555E-3,-1.0066883E-1,-2.940589E-1,-1.5526865E-1,3.5004437E-2],"categories":[],"categories_nodes":[],"categories_segments":[],"categories_sizes":[],"default_left":[0,0,0,0,0,0,0,0,0,0,0,0,0,0,0,0,0,0,0,0,0,0,0,0,0,0,0,0,0,0,0,0,0,0,0,0,0,0,0,0,0,0,0,0,0,0,0,0,0,0,0,0,0,0,0,0,0,0,0,0,0,0,0,0,0,0,0,0,0,0,0,0,0,0,0,0,0,0,0,0,0,0,0,0,0,0,0,0,0,0,0,0,0,0,0,0,0,0,0,0,0,0,0,0,0,0,0,0,0,0,0],"id":12,"left_children":[1,3,5,7,9,11,13,15,17,19,21,23,25,27,29,31,33,35,37,39,41,43,45,47,49,51,53,55,-1,57,59,-1,61,63,65,67,-1,-1,-1,69,71,73,75,77,79,81,83,85,87,89,91,93,-1,95,97,99,101,103,105,107,109,-1,-1,-1,-1,-1,-1,-1,-1,-1,-1,-1,-1,-1,-1,-1,-1,-1,-1,-1,-1,-1,-1,-1,-1,-1,-1,-1,-1,-1,-1,-1,-1,-1,-1,-1,-1,-1,-1,-1,-1,-1,-1,-1,-1,-1,-1,-1,-1,-1,-1],"loss_changes":[1.4387955E1,1.1304671E1,7.3644485E0,1.1917004E1,1.1574674E1,7.604486E0,4.9965916E0,8.094427E0,5.6309214E0,1.3367014E1,9.971155E0,4.8124714E0,4.237885E0,3.6779594E0,4.7864423E0,3.6716323E0,6.3056755E0,1.9754143E0,1.1474581E0,8.982421E0,5.0871296E0,4.347822E0,4.857372E0,4.027732E0,2.1525881E0,3.1745188E0,1.6401052E0,1.6851025E0,0E0,4.5807476E0,2.162527E0,0E0,4.0186863E0,7.991065E0,5.3468165E0,1.8197994E0,0E0,0E0,0E0,1.4643855E1,6.121171E0,4.01947E0,9.429003E0,5.4208374E-1,4.4421625E0,4.446131E0,2.8736477E0,3.6963537E0,4.916029E0,7.3724504E0,1.7934344E0,3.3530042E0,0E0,1.6208187E0,1.1874008E0,5.509777E-1,2.738078E0,3.879747E0,9.167029E0,1.058197E-2,1.731513E0,0E0,0E0,0E0,0E0,0E0,0E0,0E0,0E0,0E0,0E0,0E0,0E0,0E0,0E0,0E0,0E0,0E0,0E0,0E0,0E0,0E0,0E0,0E0,0E0,0E0,0E0,0E0,0E0,0E0,0E0,0E0,0E0,0E0,0E0,0E0,0E0,0E0,0E0,0E0,0E0,0E0,0E0,0E0,0E0,0E0,0E0,0E0,0E0,0E0,0E0],"parents":[2147483647,0,0,1,1,2,2,3,3,4,4,5,5,6,6,7,7,8,8,9,9,10,10,11,11,12,12,13,13,14,14,15,15,16,16,17,17,18,18,19,19,20,20,21,21,22,22,23,23,24,24,25,25,26,26,27,27,29,29,30,30,32,32,33,33,34,34,35,35,39,39,40,40,41,41,42,42,43,43,44,44,45,45,46,46,47,47,48,48,49,49,50,50,51,51,53,53,54,54,55,55,56,56,57,57,58,58,59,59,60,60],"right_children":[2,4,6,8,10,12,14,16,18,20,22,24,26,28,30,32,34,36,38,40,42,44,46,48,50,52,54,56,-1,58,60,-1,62,64,66,68,-1,-1,-1,70,72,74,76,78,80,82,84,86,88,90,92,94,-1,96,98,100,102,104,106,108,110,-1,-1,-1,-1,-1,-1,-1,-1,-1,-1,-1,-1,-1,-1,-1,-1,-1,-1,-1,-1,-1,-1,-1,-1,-1,-1,-1,-1,-1,-1,-1,-1,-1,-1,-1,-1,-1,-1,-1,-1,-1,-1,-1,-1,-1,-1,-1,-1,-1,-1],"split_conditions":[2.8199646E1,1E0,1.0181168E1,2.77074E1,1.627882E1,1E0,1E0,1.3155161E1,3.6716667E1,2.0144478E1,1E0,1E0,1.0333333E1,4.8716667E1,3.371246E1,2.2833333E0,1.3500474E1,1.4677603E1,1.3558039E1,4.8997513E1,1.5297058E1,6.0833335E0,3E0,2.2E1,3.049623E1,2E0,3.0249132E1,3.085E1,2.3336487E-1,2.8727165E1,1E0,2.6238698E-1,1.1045361E1,1.2076838E1,1.667693E1,2.4956161E1,3.578718E-2,1.1867944E-1,-1.8367317E-1,2.9E0,4E0,2E0,1E0,-1E0,3.779162E-2,1.6833333E0,9.205472E-2,9.6E0,4.49E1,2E0,4.7423622E1,7.4166665E0,3.9969322E-1,3.2016666E1,3.3324238E-2,1E0,3.8383335E1,2.5766064E1,2.9954132E1,3.4379208E1,3.4489563E1,1.740455E-1,-1.4608882E-1,-1.5738653E-1,5.063073E-1,5.5349197E-2,-5.6437296E-3,5.604696E-2,5.1593727E-1,-1.1991719E-1,-8.928073E-3,4.1933533E-2,-2.505318E-2,-2.0299388E-2,1.7463912E-1,-7.261991E-2,3.5661614E-1,-4.2382535E-3,-2.5321034E-1,-6.044591E-2,-1.725968E-1,1.803554E-1,-4.2211253E-2,6.651234E-2,-1.1931276E-1,2.2509302E-1,-1.7714779E-1,4.0575266E-1,-1.506899E-1,4.1154298E-1,-1.8256104E-1,-0E0,-2.4171571E-1,-2.162353E-1,2.7098545E-1,-1.4404441E-1,1.0221208E-1,-2.4670693E-1,1.2882255E-2,-1.273902E-1,-2.3704574E-1,-1.9895048E-3,-1.7862059E-1,4.1079022E-2,-1.2623173E-1,4.3796223E-1,-6.5957555E-3,-1.0066883E-1,-2.940589E-1,-1.5526865E-1,3.5004437E-2],"split_indices":[4,8,5,4,9,8,0,5,3,4,0,1,3,3,4,3,5,5,5,5,9,3,0,3,9,0,9,3,0,9,1,0,4,9,4,9,0,0,0,9,8,7,2,0,6,3,6,3,3,7,4,3,0,3,6,2,3,9,4,4,9,0,0,0,0,0,0,0,0,0,0,0,0,0,0,0,0,0,0,0,0,0,0,0,0,0,0,0,0,0,0,0,0,0,0,0,0,0,0,0,0,0,0,0,0,0,0,0,0,0,0],"split_type":[0,0,0,0,0,0,0,0,0,0,0,0,0,0,0,0,0,0,0,0,0,0,0,0,0,0,0,0,0,0,0,0,0,0,0,0,0,0,0,0,0,0,0,0,0,0,0,0,0,0,0,0,0,0,0,0,0,0,0,0,0,0,0,0,0,0,0,0,0,0,0,0,0,0,0,0,0,0,0,0,0,0,0,0,0,0,0,0,0,0,0,0,0,0,0,0,0,0,0,0,0,0,0,0,0,0,0,0,0,0,0],"sum_hessian":[4.917932E3,4.642271E3,2.7566092E2,6.145843E2,4.0276868E3,6.0102303E1,2.1555861E2,6.021708E2,1.2413493E1,3.413433E3,6.1425366E2,3.394265E1,2.6159653E1,7.7406555E1,1.3815205E2,4.179918E1,5.6037164E2,9.84627E0,2.567224E0,3.3542458E3,5.9187107E1,1.9603334E2,4.1822028E2,1.6049366E1,1.7893284E1,4.799793E0,2.135986E1,7.62243E1,1.1822544E0,1.0915925E2,2.8992802E1,1.4431418E0,4.0356037E1,6.0564632E0,5.543152E2,8.371741E0,1.4745287E0,1.0122907E0,1.5549333E0,2.6944958E3,6.597501E2,3.688116E1,2.2305946E1,1.843944E1,1.775939E2,3.4276965E2,7.545064E1,6.2035227E0,9.845844E0,5.641765E0,1.2251519E1,3.426016E0,1.3737766E0,7.702892E0,1.3656968E1,4.2556965E1,3.3667336E1,6.521295E1,4.39463E1,1.1089913E1,1.7902887E1,2.965716E0,3.7390324E1,1.7059531E0,4.35051E0,3.5161176E2,2.0270338E2,1.3151153E0,7.0566254E0,1.10696045E2,2.5837998E3,4.9828995E2,1.6146019E2,2.118929E1,1.5691873E1,5.68675E0,1.6619196E1,1.1157122E0,1.7323729E1,1.3537825E2,4.221566E1,7.2586317E0,3.3551102E2,6.807282E1,7.377815E0,3.0872536E0,3.1162689E0,8.787413E0,1.0584316E0,2.9712515E0,2.6705139E0,9.422292E0,2.8292277E0,2.4076688E0,1.0183473E0,4.4300904E0,3.2728014E0,1.2210293E1,1.4466753E0,1.1143819E1,3.1413145E1,1.3018722E1,2.0648615E1,1.5698694E1,4.9514256E1,3.6387188E0,4.030758E1,1.9419065E0,9.148007E0,1.2354766E1,5.548121E0],"tree_param":{"num_deleted":"0","num_feature":"10","num_nodes":"111","size_leaf_vector":"1"}},{"base_weights":[-2.1213546E-2,6.963799E-2,-4.6637073E-2,-1.069977E-1,9.540944E-2,-3.2544248E-2,-2.4800603E-1,-1.9324319E-1,2.7656662E-1,1.0948918E-1,-2.1941753E-1,-3.849702E-2,4.4933295E-1,-3.5059667E-1,3.271015E-2,-4.750464E-1,-9.71491E-2,2.6431289E-2,1.6272709E0,1.728303E-1,5.287803E-2,-3.6850214E-1,3.4463125E-1,-1.7215464E-1,-2.2117317E-2,1.4212016E0,2.5920713E-1,-2.970015E-1,-7.596006E-1,3.0590424E-1,-1.7930591E-1,-7.113049E-1,3.8856074E-1,3.0192466E-2,-6.0367805E-1,2.702151E-1,-7.3529226E-1,6.664951E-1,1.777282E-1,1.4317693E-1,5.499167E-1,-1.3815713E-2,1.9276325E-1,2.7895632E-1,-4.4759762E-1,7.911632E-1,-2.3174077E-1,3.2021023E-2,-2.972058E-1,6.252723E-3,-7.741976E-2,1.9610708E0,3.5223708E-1,-1.1038927E-1,3.9999926E-1,-3.4946117E-1,5.9755947E-2,-7.948129E-1,-4.9655437E-3,1.3330077E0,8.0925465E-2,2.5008887E-1,-4.14146E-1,-2.4279396E-1,-1.1539849E-2,3.0766314E-1,-9.0515964E-2,1.0491695E-1,-7.167898E-2,-0E0,-2.0365694E-1,-5.6402856E-3,2.4956141E-1,-2.6689626E-3,-2.6290387E-1,5.0222527E-2,-6.986721E-2,5.165721E-2,3.24419E-1,5.4937056E-3,-1.3616203E-1,1.6020164E-1,3.2628614E-2,-4.5464333E-2,-2.0183697E-1,4.5156226E-1,-1.259931E-1,6.288631E-2,-8.958799E-2,-9.480812E-2,2.1998142E-1,-1.1765464E-2,5.1406544E-2,-7.09054E-2,-9.340854E-3,8.497024E-1,2.2585021E-1,2.8193855E-1,-7.159866E-2,1.0197168E-1,-1.7441002E-1,-1.599114E-1,1.4392912E-1,7.869652E-2,-1.14968605E-1,-6.8944916E-2,3.981541E-1,-2.4931306E-1,-5.0777297E-2,6.924556E-2,4.7470716E-1,1.2929796E-1,-1.3576171E-1,-3.728922E-2,2.826626E-1,-2.2998282E-1,-4.905369E-3],"categories":[],"categories_nodes":[],"categories_segments":[],"categories_sizes":[],"default_left":[0,0,0,0,0,0,0,0,0,0,0,0,0,0,0,0,0,0,0,0,0,0,0,0,0,0,0,0,0,0,0,0,0,0,0,0,0,0,0,0,0,0,0,0,0,0,0,0,0,0,0,0,0,0,0,0,0,0,0,0,0,0,0,0,0,0,0,0,0,0,0,0,0,0,0,0,0,0,0,0,0,0,0,0,0,0,0,0,0,0,0,0,0,0,0,0,0,0,0,0,0,0,0,0,0,0,0,0,0,0,0,0,0,0,0,0,0],"id":13,"left_children":[1,3,5,7,9,11,13,15,17,19,21,23,25,27,29,31,33,35,37,39,41,43,45,47,49,51,53,55,57,59,61,63,65,67,69,71,73,-1,-1,75,77,79,81,-1,83,85,-1,87,89,91,93,95,97,99,101,103,105,107,-1,109,111,113,115,-1,-1,-1,-1,-1,-1,-1,-1,-1,-1,-1,-1,-1,-1,-1,-1,-1,-1,-1,-1,-1,-1,-1,-1,-1,-1,-1,-1,-1,-1,-1,-1,-1,-1,-1,-1,-1,-1,-1,-1,-1,-1,-1,-1,-1,-1,-1,-1,-1,-1,-1,-1,-1,-1],"loss_changes":[1.1244574E1,4.852083E0,1.076182E1,4.525494E0,4.1330347E0,1.0181515E1,7.1928062E0,2.9126616E0,8.2588825E0,3.161972E0,3.4776301E0,7.672973E0,7.462035E0,3.6617794E0,3.9539962E0,5.980778E0,5.5309525E0,4.2791934E0,7.624941E-1,4.537862E0,4.4294906E0,3.6661468E0,4.9529953E0,9.814114E0,4.923774E0,2.986906E0,2.0251803E0,3.0988264E0,4.354372E-1,6.658785E0,3.9724424E0,1.3528175E0,3.25188E0,5.9748473E0,8.229623E-1,2.9647875E0,4.7311664E-1,0E0,0E0,3.5873733E0,5.70179E0,4.582568E0,4.2668834E0,0E0,1.8836484E0,6.5987277E0,0E0,8.630934E0,4.804138E0,1.5565815E1,7.7903857E0,1.9510212E0,1.5283296E0,2.5410488E0,2.3028135E0,3.05476E0,8.30337E0,1.9401646E-1,0E0,8.90028E-1,4.9863405E0,3.8213997E0,3.4457884E0,0E0,0E0,0E0,0E0,0E0,0E0,0E0,0E0,0E0,0E0,0E0,0E0,0E0,0E0,0E0,0E0,0E0,0E0,0E0,0E0,0E0,0E0,0E0,0E0,0E0,0E0,0E0,0E0,0E0,0E0,0E0,0E0,0E0,0E0,0E0,0E0,0E0,0E0,0E0,0E0,0E0,0E0,0E0,0E0,0E0,0E0,0E0,0E0,0E0,0E0,0E0,0E0,0E0,0E0],"parents":[2147483647,0,0,1,1,2,2,3,3,4,4,5,5,6,6,7,7,8,8,9,9,10,10,11,11,12,12,13,13,14,14,15,15,16,16,17,17,18,18,19,19,20,20,21,21,22,22,23,23,24,24,25,25,26,26,27,27,28,28,29,29,30,30,31,31,32,32,33,33,34,34,35,35,36,36,39,39,40,40,41,41,42,42,44,44,45,45,47,47,48,48,49,49,50,50,51,51,52,52,53,53,54,54,55,55,56,56,57,57,59,59,60,60,61,61,62,62],"right_children":[2,4,6,8,10,12,14,16,18,20,22,24,26,28,30,32,34,36,38,40,42,44,46,48,50,52,54,56,58,60,62,64,66,68,70,72,74,-1,-1,76,78,80,82,-1,84,86,-1,88,90,92,94,96,98,100,102,104,106,108,-1,110,112,114,116,-1,-1,-1,-1,-1,-1,-1,-1,-1,-1,-1,-1,-1,-1,-1,-1,-1,-1,-1,-1,-1,-1,-1,-1,-1,-1,-1,-1,-1,-1,-1,-1,-1,-1,-1,-1,-1,-1,-1,-1,-1,-1,-1,-1,-1,-1,-1,-1,-1,-1,-1,-1,-1,-1],"split_conditions":[1E0,1.3558039E1,2.6517353E1,3.4790802E1,1.699919E-1,2.5079872E1,2E0,9.936599E0,4.44E1,1.0204411E1,3.4541297E-1,0E0,1.572647E1,1.4726108E1,2.6456001E1,2.8319605E1,3.1645695E1,3.6366665E1,4.5466667E1,5.11387E-2,2.3307724E1,3.4014702E0,4E0,7.1168814E0,1.0948059E1,2E0,0E0,1.4025121E1,8.885551E-2,1.117502E1,1E0,1.6253192E-2,3.049623E1,1.230224E1,1.0915058E1,2.47E1,3.3899853E1,6.664951E-1,1.777282E-1,2.2370772E-2,7.4525166E0,2.2202929E1,2.523351E1,2.7895632E-1,1E0,8.854942E0,-2.3174077E-1,3E0,2.3792856E1,1.3092364E1,1.56205E1,1E0,2.5719448E1,3.4090405E1,4.25E0,6.3187075E0,4.0383335E1,4.3483334E1,-4.9655437E-3,1.5416667E1,3E0,3E0,3.1442965E1,-2.4279396E-1,-1.1539849E-2,3.0766314E-1,-9.0515964E-2,1.0491695E-1,-7.167898E-2,-0E0,-2.0365694E-1,-5.6402856E-3,2.4956141E-1,-2.6689626E-3,-2.6290387E-1,5.0222527E-2,-6.986721E-2,5.165721E-2,3.24419E-1,5.4937056E-3,-1.3616203E-1,1.6020164E-1,3.2628614E-2,-4.5464333E-2,-2.0183697E-1,4.5156226E-1,-1.259931E-1,6.288631E-2,-8.958799E-2,-9.480812E-2,2.1998142E-1,-1.1765464E-2,5.1406544E-2,-7.09054E-2,-9.340854E-3,8.497024E-1,2.2585021E-1,2.8193855E-1,-7.159866E-2,1.0197168E-1,-1.7441002E-1,-1.599114E-1,1.4392912E-1,7.869652E-2,-1.14968605E-1,-6.8944916E-2,3.981541E-1,-2.4931306E-1,-5.0777297E-2,6.924556E-2,4.7470716E-1,1.2929796E-1,-1.3576171E-1,-3.728922E-2,2.826626E-1,-2.2998282E-1,-4.905369E-3],"split_indices":[2,5,4,4,6,9,0,5,3,9,6,0,5,5,9,9,4,3,3,6,9,4,8,9,9,0,0,5,6,5,1,6,9,5,5,3,9,0,0,6,9,9,9,0,1,9,0,8,9,4,4,1,4,5,3,5,3,3,0,3,0,0,4,0,0,0,0,0,0,0,0,0,0,0,0,0,0,0,0,0,0,0,0,0,0,0,0,0,0,0,0,0,0,0,0,0,0,0,0,0,0,0,0,0,0,0,0,0,0,0,0,0,0,0,0,0,0],"split_type":[0,0,0,0,0,0,0,0,0,0,0,0,0,0,0,0,0,0,0,0,0,0,0,0,0,0,0,0,0,0,0,0,0,0,0,0,0,0,0,0,0,0,0,0,0,0,0,0,0,0,0,0,0,0,0,0,0,0,0,0,0,0,0,0,0,0,0,0,0,0,0,0,0,0,0,0,0,0,0,0,0,0,0,0,0,0,0,0,0,0,0,0,0,0,0,0,0,0,0,0,0,0,0,0,0,0,0,0,0,0,0,0,0,0,0,0,0],"sum_hessian":[4.866863E3,1.0628986E3,3.803964E3,1.3443796E2,9.284606E2,3.5567058E3,2.4725818E2,1.1037643E2,2.4061539E1,8.896437E2,3.8816933E1,3.514419E3,4.2287033E1,1.8115903E2,6.609915E1,2.6799797E1,8.357663E1,2.1224586E1,2.8369522E0,4.1806235E2,4.715813E2,3.1116465E1,7.700468E0,3.8196738E2,3.1324514E3,5.773506E0,3.6513527E1,1.6191289E2,1.9246132E1,2.8895096E1,3.7204056E1,2.1272415E1,5.527382E0,6.7380196E1,1.6196434E1,1.6666985E1,4.557602E0,1.0121362E0,1.824816E0,3.8910846E2,2.8953884E1,3.194581E2,1.521232E2,1.0965266E0,3.0019938E1,5.773821E0,1.9266471E0,1.4506259E2,2.369048E2,2.0697517E3,1.0626998E3,3.2194543E0,2.5540519E0,9.936E0,2.6577528E1,1.4141864E2,2.049425E1,1.8180338E1,1.0657934E0,4.227162E0,2.4667934E1,1.29799795E1,2.4224075E1,1.826099E1,3.0114248E0,2.6974154E0,2.8299665E0,3.0838058E1,3.6542137E1,1.8120989E0,1.4384335E1,1.1524968E1,5.142017E0,1.0292453E0,3.5283568E0,3.6632544E2,2.2783012E1,1.7809032E1,1.1144852E1,2.984032E2,2.1054905E1,2.8756538E1,1.2336666E2,1.3884138E1,1.61358E1,3.5315266E0,2.2422945E0,9.480739E1,5.025521E1,2.3343163E2,3.4731703E0,1.6229352E3,4.4681656E2,2.3826445E2,8.244353E2,1.041477E0,2.1779773E0,1.0694417E0,1.4846101E0,5.1132584E0,4.822741E0,1.5468668E0,2.5030663E1,6.8883896E0,1.3453026E2,1.7284891E1,3.2093582E0,1.6723413E1,1.4569242E0,1.209147E0,3.018015E0,1.5123318E1,9.544617E0,8.862137E0,4.117842E0,1.2218989E1,1.2005086E1],"tree_param":{"num_deleted":"0","num_feature":"10","num_nodes":"117","size_leaf_vector":"1"}},{"base_weights":[-1.5894812E-2,-4.911556E-3,-1.6017962E-1,3.9988575E-3,-1.5924606E-1,-1.0711885E-1,-6.0916275E-1,-1.2724614E-1,1.3249653E-2,-3.4194818E-1,-6.455497E-2,-2.259085E-1,2.0618929E-2,1.096723E-1,-6.7411125E-1,